{"learner":{"attributes":{"scikit_learn":"{\"_estimator_type\": \"classifier\"}"},"feature_names":["danceability","energy","loudness","speechiness","acousticness","instrumentalness","liveness","valence","tempo","energy_danceability","valence_energy","mood_score","key_1","key_2","key_3","key_4","key_5","key_6","key_7","key_8","key_9","key_10","key_11","mode_1","time signature_5"],"feature_types":["float","float","float","float","float","float","float","float","float","float","float","float","float","float","float","float","float","float","float","float","float","float","float","float","float"],"gradient_booster":{"model":{"cats":{"enc":[],"feature_segments":[],"sorted_idx":[]},"gbtree_model_param":{"num_parallel_tree":"1","num_trees":"100"},"iteration_indptr":[0,1,2,3,4,5,6,7,8,9,10,11,12,13,14,15,16,17,18,19,20,21,22,23,24,25,26,27,28,29,30,31,32,33,34,35,36,37,38,39,40,41,42,43,44,45,46,47,48,49,50,51,52,53,54,55,56,57,58,59,60,61,62,63,64,65,66,67,68,69,70,71,72,73,74,75,76,77,78,79,80,81,82,83,84,85,86,87,88,89,90,91,92,93,94,95,96,97,98,99,100],"tree_info":[0,0,0,0,0,0,0,0,0,0,0,0,0,0,0,0,0,0,0,0,0,0,0,0,0,0,0,0,0,0,0,0,0,0,0,0,0,0,0,0,0,0,0,0,0,0,0,0,0,0,0,0,0,0,0,0,0,0,0,0,0,0,0,0,0,0,0,0,0,0,0,0,0,0,0,0,0,0,0,0,0,0,0,0,0,0,0,0,0,0,0,0,0,0,0,0,0,0,0,0],"trees":[{"base_weights":[1.3212348E-2,4.9808523E-1,-4.4310963E-1,-0E0,6.7920715E-1,1.455956E-1,-6.336842E-1,2.7497977E-1,-2.5533837E-1,5.387124E-2,-0E0,1.8873775E-2,-4.7894765E-2,-6.778948E-1,-0E0,2.240009E-2,-0E0,-2.4031248E-2,4.995408E-4,-1.076471E-2,3.9288322E-3,-5.346059E-2,-0E0],"categories":[],"categories_nodes":[],"categories_segments":[],"categories_sizes":[],"default_left":[0,0,0,0,0,0,0,0,0,0,0,0,0,0,0,0,0,0,0,0,0,0,0],"id":0,"left_children":[1,3,5,7,9,11,13,15,17,-1,-1,-1,19,21,-1,-1,-1,-1,-1,-1,-1,-1,-1],"loss_changes":[1.1855172E1,2.3681207E0,4.1874213E0,1.8957479E0,4.8660088E-1,4.9721014E-1,6.443567E-1,8.191508E-2,3.899629E-1,0E0,0E0,0E0,2.2793855E-1,4.819584E-1,0E0,0E0,0E0,0E0,0E0,0E0,0E0,0E0,0E0],"parents":[2147483647,0,0,1,1,2,2,3,3,4,4,5,5,6,6,7,7,8,8,12,12,13,13],"right_children":[2,4,6,8,10,12,14,16,18,-1,-1,-1,20,22,-1,-1,-1,-1,-1,-1,-1,-1,-1],"split_conditions":[-5.196217E-1,-8.28797E-3,-2.9675105E-1,-7.4900514E-1,5.669034E-2,-3.645645E-1,1.0550011E0,1.3071509E-1,-7.406981E-1,5.387124E-2,-0E0,1.8873775E-2,5.191881E-1,1.3630527E0,-0E0,2.240009E-2,-0E0,-2.4031248E-2,4.995408E-4,-1.076471E-2,3.9288322E-3,-5.346059E-2,-0E0],"split_indices":[4,2,3,1,8,8,9,3,4,0,0,0,1,10,0,0,0,0,0,0,0,0,0],"split_type":[0,0,0,0,0,0,0,0,0,0,0,0,0,0,0,0,0,0,0,0,0,0,0],"sum_hessian":[3.35E1,1.625E1,1.725E1,7E0,9.25E0,4.25E0,1.3E1,3E0,4E0,8.25E0,1E0,2.25E0,2E0,1.15E1,1.5E0,2E0,1E0,2.75E0,1.25E0,1E0,1E0,1.05E1,1E0],"tree_param":{"num_deleted":"0","num_feature":"25","num_nodes":"23","size_leaf_vector":"1"}},{"base_weights":[1.6598314E-2,5.0191987E-1,-4.080261E-1,6.1501634E-1,-4.500968E-2,2.0691173E-1,-6.385422E-1,4.9832236E-2,-0E0,-1.6727503E-2,1.0120916E-2,-3.7493547E-3,2.2987545E-2,-5.0471023E-2,-0E0],"categories":[],"categories_nodes":[],"categories_segments":[],"categories_sizes":[],"default_left":[0,0,0,0,0,0,0,0,0,0,0,0,0,0,0],"id":1,"left_children":[1,3,5,7,9,11,13,-1,-1,-1,-1,-1,-1,-1,-1],"loss_changes":[1.1049246E1,2.0806813E0,5.5080748E0,6.9717693E-1,7.5107336E-1,6.354066E-1,2.1713352E-1,0E0,0E0,0E0,0E0,0E0,0E0,0E0,0E0],"parents":[2147483647,0,0,1,1,2,2,3,3,4,4,5,5,6,6],"right_children":[2,4,6,8,10,12,14,-1,-1,-1,-1,-1,-1,-1,-1],"split_conditions":[-5.502871E-1,3.8370523E-1,-2.9675105E-1,1E0,-8.0844736E-1,-7.7863216E-1,1E0,4.9832236E-2,-0E0,-1.6727503E-2,1.0120916E-2,-3.7493547E-3,2.2987545E-2,-5.0471023E-2,-0E0],"split_indices":[4,3,3,21,4,2,21,0,0,0,0,0,0,0,0],"split_type":[0,0,0,0,0,0,0,0,0,0,0,0,0,0,0],"sum_hessian":[3.348495E1,1.5243583E1,1.824137E1,1.2244307E1,2.9992757E0,4.7497673E0,1.3491602E1,1.07452135E1,1.4990935E0,1.4996383E0,1.4996374E0,1.4999266E0,3.249841E0,1.1742852E1,1.7487501E0],"tree_param":{"num_deleted":"0","num_feature":"25","num_nodes":"15","size_leaf_vector":"1"}},{"base_weights":[6.54421E-2,6.3758093E-1,-4.07078E-1,5.5581078E-2,5.368887E-2,1.0155496E-1,-5.579395E-1,2.037295E-2,-1.3880365E-2,-4.9842756E-2,1.5795983E-2,-6.292964E-1,-0E0,1.9451667E-4,-7.2011617E-3,-5.366784E-2,1.3046726E-3,7.7897613E-3,-6.496696E-3],"categories":[],"categories_nodes":[],"categories_segments":[],"categories_sizes":[],"default_left":[0,0,0,0,0,0,0,0,0,0,0,0,0,0,0,0,0,0,0],"id":2,"left_children":[1,3,5,7,-1,9,11,-1,-1,13,-1,15,17,-1,-1,-1,-1,-1,-1],"loss_changes":[1.4304486E1,3.3128643E-1,3.0027046E0,1.2735964E0,0E0,4.110407E-1,1.1059084E0,0E0,0E0,7.219949E-2,0E0,1.6332026E0,2.0467101E-1,0E0,0E0,0E0,0E0,0E0,0E0],"parents":[2147483647,0,0,1,1,2,2,3,3,5,5,6,6,9,9,11,11,12,12],"right_children":[2,4,6,8,-1,10,12,-1,-1,14,-1,16,18,-1,-1,-1,-1,-1,-1],"split_conditions":[-5.502871E-1,-8.376865E-1,-2.9675105E-1,-8.9944524E-1,5.368887E-2,2.861972E-1,6.9831735E-1,2.037295E-2,-1.3880365E-2,-4.6022597E-1,1.5795983E-2,8.080018E-1,9.6915215E-1,1.9451667E-4,-7.2011617E-3,-5.366784E-2,1.3046726E-3,7.7897613E-3,-6.496696E-3],"split_indices":[4,4,3,4,0,2,0,0,0,8,0,9,2,0,0,0,0,0,0],"split_type":[0,0,0,0,0,0,0,0,0,0,0,0,0,0,0,0,0,0,0],"sum_hessian":[3.2948536E1,1.3730318E1,1.9218216E1,4.2442527E0,9.486065E0,4.4990416E0,1.4719175E1,2.495987E0,1.7482659E0,2.4994884E0,1.999553E0,1.2223716E1,2.495459E0,1.2495477E0,1.2499406E0,1.0476394E1,1.7473223E0,1.2481554E0,1.2473037E0],"tree_param":{"num_deleted":"0","num_feature":"25","num_nodes":"19","size_leaf_vector":"1"}},{"base_weights":[-8.039405E-2,4.2365316E-1,-4.6280143E-1,3.815065E-2,-3.697987E-3,-6.263792E-1,-0E0,-5.091604E-2,-0E0,9.180788E-2,-1.2588916E-2,-6.790269E-3,1.4334811E-2],"categories":[],"categories_nodes":[],"categories_segments":[],"categories_sizes":[],"default_left":[0,0,0,0,0,0,0,0,0,0,0,0,0],"id":3,"left_children":[1,3,5,-1,-1,7,9,-1,-1,11,-1,-1,-1],"loss_changes":[1.0676847E1,1.402605E0,2.0857534E0,0E0,0E0,7.8370476E-1,4.7232467E-1,0E0,0E0,5.204273E-1,0E0,0E0,0E0],"parents":[2147483647,0,0,1,1,2,2,5,5,6,6,9,9],"right_children":[2,4,6,-1,-1,8,10,-1,-1,12,-1,-1,-1],"split_conditions":[-1.6589406E-1,-7.149435E-2,4.4519702E-1,3.815065E-2,-3.697987E-3,1.0322803E0,1E0,-5.091604E-2,-0E0,-9.8769355E-1,-1.2588916E-2,-6.790269E-3,1.4334811E-2],"split_indices":[3,5,0,0,0,6,20,0,0,11,0,0,0],"split_type":[0,0,0,0,0,0,0,0,0,0,0,0,0],"sum_hessian":[3.5133408E1,1.4211166E1,2.0922243E1,1.2217491E1,1.993675E0,1.2196555E1,8.725687E0,1.0703662E1,1.4928933E0,6.980547E0,1.7451401E0,1.2453549E0,5.735192E0],"tree_param":{"num_deleted":"0","num_feature":"25","num_nodes":"13","size_leaf_vector":"1"}},{"base_weights":[-7.19121E-2,4.15168E-1,-4.757358E-1,5.789986E-1,-5.415699E-2,9.045978E-2,-6.297677E-1,4.7666937E-2,-0E0,-1.8683389E-2,1.0658909E-2,-5.4127883E-2,1.5124443E-2,-6.728582E-1,-0E0,2.1430128E-4,-7.579112E-3,-3.1437206E-3,-5.4987498E-2],"categories":[],"categories_nodes":[],"categories_segments":[],"categories_sizes":[],"default_left":[0,0,0,0,0,0,0,0,0,0,0,0,0,0,0,0,0,0,0],"id":4,"left_children":[1,3,5,7,9,11,13,-1,-1,-1,-1,15,-1,17,-1,-1,-1,-1,-1],"loss_changes":[1.0820175E1,2.4733357E0,3.3849897E0,7.4438E-1,9.682098E-1,4.0334582E-1,7.334719E-1,0E0,0E0,0E0,0E0,7.7755764E-2,0E0,2.3753071E-1,0E0,0E0,0E0,0E0,0E0],"parents":[2147483647,0,0,1,1,2,2,3,3,4,4,5,5,6,6,11,11,13,13],"right_children":[2,4,6,8,10,12,14,-1,-1,-1,-1,16,-1,18,-1,-1,-1,-1,-1],"split_conditions":[-5.502871E-1,1.3071509E-1,-2.9675105E-1,1E0,-8.0844736E-1,2.624537E-1,1.0550011E0,4.7666937E-2,-0E0,-1.8683389E-2,1.0658909E-2,1.5191056E-2,1.5124443E-2,-8.6838764E-1,-0E0,2.1430128E-4,-7.579112E-3,-3.1437206E-3,-5.4987498E-2],"split_indices":[4,3,3,21,4,2,9,0,0,0,0,7,0,9,0,0,0,0,0],"split_type":[0,0,0,0,0,0,0,0,0,0,0,0,0,0,0,0,0,0,0],"sum_hessian":[3.483763E1,1.5186325E1,1.9651304E1,1.0196306E1,4.990019E0,4.494951E0,1.5156354E1,8.701091E0,1.4952155E0,2.2481172E0,2.7419016E0,2.4982765E0,1.9966745E0,1.36575365E1,1.4988171E0,1.2492299E0,1.2490466E0,3.227437E0,1.04300995E1],"tree_param":{"num_deleted":"0","num_feature":"25","num_nodes":"19","size_leaf_vector":"1"}},{"base_weights":[-8.8812545E-2,2.985476E-1,-4.6682656E-1,-0E0,4.7803512E-1,-5.396687E-1,1.1605361E-2,2.1965303E-1,-2.5371227E-1,4.0014602E-2,-0E0,-6.326052E-1,-0E0,-6.2756403E-3,9.8861875E-3,2.2539351E-2,-1.7381756E-3,-2.4191784E-2,1.1764463E-3,-5.1229637E-2,-1.1972073E-3,1.2940182E-2,-1.19382795E-2],"categories":[],"categories_nodes":[],"categories_segments":[],"categories_sizes":[],"default_left":[0,0,0,0,0,0,0,0,0,0,0,0,0,0,0,0,0,0,0,0,0,0,0],"id":5,"left_children":[1,3,5,7,9,11,13,15,17,-1,-1,19,21,-1,-1,-1,-1,-1,-1,-1,-1,-1,-1],"loss_changes":[8.308302E0,1.7205772E0,1.2667689E0,1.6813077E0,6.001415E-1,1.3723068E0,2.7523202E-1,4.8281628E-1,4.5003694E-1,0E0,0E0,2.524929E-1,6.4359057E-1,0E0,0E0,0E0,0E0,0E0,0E0,0E0,0E0,0E0,0E0],"parents":[2147483647,0,0,1,1,2,2,3,3,4,4,5,5,6,6,7,7,8,8,11,11,12,12],"right_children":[2,4,6,8,10,12,14,16,18,-1,-1,20,22,-1,-1,-1,-1,-1,-1,-1,-1,-1,-1],"split_conditions":[8.581906E-3,4.958211E-1,9.5693535E-1,-5.410174E-1,-1.0381981E-1,7.880811E-1,-4.0043738E-1,-5.2606337E-2,5.490461E-1,4.0014602E-2,-0E0,7.4952495E-1,-2.2204326E-2,-6.2756403E-3,9.8861875E-3,2.2539351E-2,-1.7381756E-3,-2.4191784E-2,1.1764463E-3,-5.1229637E-2,-1.1972073E-3,1.2940182E-2,-1.19382795E-2],"split_indices":[3,0,7,3,5,6,1,0,7,0,0,2,1,0,0,0,0,0,0,0,0,0,0],"split_type":[0,0,0,0,0,0,0,0,0,0,0,0,0,0,0,0,0,0,0,0,0,0,0],"sum_hessian":[3.6733276E1,1.8625002E1,1.8108274E1,9.93085E0,8.694151E0,1.5376149E1,2.7321243E0,5.2171855E0,4.7136645E0,7.2048774E0,1.4892738E0,1.189692E1,3.479229E0,1.2391822E0,1.4929421E0,3.4753232E0,1.7418624E0,3.4718175E0,1.2418469E0,9.416194E0,2.4807265E0,1.7425545E0,1.7366743E0],"tree_param":{"num_deleted":"0","num_feature":"25","num_nodes":"23","size_leaf_vector":"1"}},{"base_weights":[-0E0,4.5451376E-1,-5.223242E-1,5.073536E-2,-1.8987493E-1,-6.1762625E-1,7.7049774E-3,6.6902763E-3,-2.3545576E-2,-5.0298933E-2,-2.2313513E-3,8.881543E-3,-1.1918135E-2],"categories":[],"categories_nodes":[],"categories_segments":[],"categories_sizes":[],"default_left":[0,0,0,0,0,0,0,0,0,0,0,0,0],"id":6,"left_children":[1,3,5,-1,7,9,-1,-1,-1,-1,11,-1,-1],"loss_changes":[1.271897E1,5.6146913E0,2.3164382E0,0E0,8.7984306E-1,4.3678856E-1,0E0,0E0,0E0,0E0,4.388527E-1,0E0,0E0],"parents":[2147483647,0,0,1,1,2,2,4,4,5,5,10,10],"right_children":[2,4,6,-1,8,10,-1,-1,-1,-1,12,-1,-1],"split_conditions":[-2.122541E-1,3.3136246E-1,1.4540681E0,5.073536E-2,-5.8592063E-1,-1.17839776E-1,7.7049774E-3,6.6902763E-3,-2.3545576E-2,-5.0298933E-2,2.508329E0,8.881543E-3,-1.1918135E-2],"split_indices":[4,3,10,0,8,8,0,0,0,0,8,0,0],"split_type":[0,0,0,0,0,0,0,0,0,0,0,0,0],"sum_hessian":[3.368205E1,1.9086802E1,1.4595248E1,1.4366566E1,4.720237E0,1.3353682E1,1.2415668E0,1.2418001E0,3.4784365E0,1.0885664E1,2.4680178E0,1.2361078E0,1.23191E0],"tree_param":{"num_deleted":"0","num_feature":"25","num_nodes":"13","size_leaf_vector":"1"}},{"base_weights":[4.692644E-2,2.8785953E-1,-4.476504E-1,3.6078554E-1,-9.10525E-3,-3.688141E-2,-0E0,-1.3559938E-3,4.31523E-1,1.7193165E-2,-1.845799E-2,3.5042178E-2,-3.436312E-5],"categories":[],"categories_nodes":[],"categories_segments":[],"categories_sizes":[],"default_left":[0,0,0,0,0,0,0,0,0,0,0,0,0],"id":7,"left_children":[1,3,5,7,-1,-1,-1,9,11,-1,-1,-1,-1],"loss_changes":[6.327422E0,1.5969937E0,2.8278852E-1,1.0471554E0,0E0,0E0,0E0,1.3804094E0,6.32956E-1,0E0,0E0,0E0,0E0],"parents":[2147483647,0,0,1,1,2,2,3,3,7,7,8,8],"right_children":[2,4,6,8,-1,-1,-1,10,12,-1,-1,-1,-1],"split_conditions":[6.3639414E-1,1E0,7.4490815E-1,-8.376865E-1,-9.10525E-3,-3.688141E-2,-0E0,-9.182724E-1,1E0,1.7193165E-2,-1.845799E-2,3.5042178E-2,-3.436312E-5],"split_indices":[4,17,2,4,0,0,0,4,20,0,0,0,0],"split_type":[0,0,0,0,0,0,0,0,0,0,0,0,0],"sum_hessian":[3.285645E1,2.5482286E1,7.374162E0,2.3507854E1,1.974432E0,5.6478934E0,1.7262689E0,4.4618406E0,1.9046013E1,1.7265306E0,2.7353103E0,1.7819462E1,1.2265508E0],"tree_param":{"num_deleted":"0","num_feature":"25","num_nodes":"13","size_leaf_vector":"1"}},{"base_weights":[-2.247446E-2,3.3676636E-1,-4.6212664E-1,4.2985626E-2,-1.8212005E-1,-5.52162E-1,7.3420582E-3,5.9830653E-3,-2.2399066E-2,-5.8652604E-1,-0E0,-0E0,-4.8174966E-2],"categories":[],"categories_nodes":[],"categories_segments":[],"categories_sizes":[],"default_left":[0,0,0,0,0,0,0,0,0,0,0,0,0],"id":8,"left_children":[1,3,5,-1,7,9,-1,-1,-1,11,-1,-1,-1],"loss_changes":[8.5605545E0,4.7988777E0,1.9691014E0,0E0,8.207234E-1,3.1585407E-1,0E0,0E0,0E0,5.1576805E-1,0E0,0E0,0E0],"parents":[2147483647,0,0,1,1,2,2,4,4,5,5,9,9],"right_children":[2,4,6,-1,8,10,-1,-1,-1,12,-1,-1,-1],"split_conditions":[-2.122541E-1,1.3071509E-1,1.5758069E0,4.2985626E-2,-4.755117E-1,1E0,7.3420582E-3,5.9830653E-3,-2.2399066E-2,9.44003E-2,-0E0,-0E0,-4.8174966E-2],"split_indices":[4,3,10,0,8,22,0,0,0,4,0,0,0],"split_type":[0,0,0,0,0,0,0,0,0,0,0,0,0],"sum_hessian":[3.400983E1,1.947206E1,1.4537771E1,1.3268271E1,6.2037873E0,1.3294937E1,1.2428339E0,1.7348801E0,4.4689074E0,1.1563389E1,1.731549E0,2.2341435E0,9.329245E0],"tree_param":{"num_deleted":"0","num_feature":"25","num_nodes":"13","size_leaf_vector":"1"}},{"base_weights":[-1.3921013E-2,3.6723086E-1,-4.6466362E-1,5.8513224E-1,-1.7156208E-1,-5.21189E-1,7.6190184E-4,4.8069317E-2,-0E0,-2.0953355E-2,6.086222E-3,-4.499069E-2,-0E0,1.1527065E-2,-1.1796603E-2],"categories":[],"categories_nodes":[],"categories_segments":[],"categories_sizes":[],"default_left":[0,0,0,0,0,0,0,0,0,0,0,0,0,0,0],"id":9,"left_children":[1,3,5,7,9,11,-1,-1,-1,-1,-1,-1,13,-1,-1],"loss_changes":[9.532409E0,4.6578746E0,9.59507E-1,9.816284E-1,7.3421764E-1,9.148469E-1,0E0,0E0,0E0,0E0,0E0,0E0,5.587168E-1,0E0,0E0],"parents":[2147483647,0,0,1,1,2,2,3,3,4,4,5,5,12,12],"right_children":[2,4,6,8,10,12,-1,-1,-1,-1,-1,-1,14,-1,-1],"split_conditions":[-2.122541E-1,1.3071509E-1,1.0177801E0,1E0,8.729582E-1,7.405041E-1,7.6190184E-4,4.8069317E-2,-0E0,-2.0953355E-2,6.086222E-3,-4.499069E-2,-1.024895E-1,1.1527065E-2,-1.1796603E-2],"split_indices":[4,3,9,21,7,0,0,0,0,0,0,0,11,0,0],"split_type":[0,0,0,0,0,0,0,0,0,0,0,0,0,0,0],"sum_hessian":[3.5311543E1,1.962541E1,1.56861315E1,1.3923592E1,5.7018185E0,1.3944566E1,1.7415653E0,1.2445513E1,1.4780793E0,4.459048E0,1.2427708E0,1.0724294E1,3.2202723E0,1.4869668E0,1.7333055E0],"tree_param":{"num_deleted":"0","num_feature":"25","num_nodes":"15","size_leaf_vector":"1"}},{"base_weights":[-9.9529214E-2,3.2973894E-1,-4.3918723E-1,3.3249848E-2,3.380647E-2,-4.805157E-1,1.5161975E-3,1.984609E-2,-1.7267492E-1,-5.24995E-1,1.3747968E-3,-2.7113874E-2,1.0015958E-2,-4.2341076E-2,-0E0],"categories":[],"categories_nodes":[],"categories_segments":[],"categories_sizes":[],"default_left":[0,0,0,0,0,0,0,0,0,0,0,0,0,0,0],"id":10,"left_children":[1,3,5,7,-1,9,-1,-1,11,13,-1,-1,-1,-1,-1],"loss_changes":[8.081128E0,5.375273E-1,8.633275E-1,1.399431E0,0E0,9.511199E-1,0E0,0E0,1.4469336E0,7.554927E-1,0E0,0E0,0E0,0E0,0E0],"parents":[2147483647,0,0,1,1,2,2,3,3,5,5,8,8,9,9],"right_children":[2,4,6,8,-1,10,-1,-1,12,14,-1,-1,-1,-1,-1],"split_conditions":[-1.6589406E-1,3.2675898E-1,1E0,-7.6210326E-1,3.380647E-2,1E0,1.5161975E-3,1.984609E-2,7.0500374E-1,1E0,1.3747968E-3,-2.7113874E-2,1.0015958E-2,-4.2341076E-2,-0E0],"split_indices":[3,2,18,10,0,15,0,0,7,19,0,0,0,0,0],"split_type":[0,0,0,0,0,0,0,0,0,0,0,0,0,0,0],"sum_hessian":[3.5172947E1,1.5112895E1,2.0060051E1,9.049106E0,6.063789E0,1.8830849E1,1.2292025E0,3.9134955E0,5.1356106E0,1.7589712E1,1.2411366E0,2.9345841E0,2.2010264E0,1.6365982E1,1.2237298E0],"tree_param":{"num_deleted":"0","num_feature":"25","num_nodes":"15","size_leaf_vector":"1"}},{"base_weights":[-2.9816393E-2,3.4828073E-1,-3.0402264E-1,3.300471E-2,-5.9803044E-3,5.6035724E-2,-4.235773E-1,-1.4983226E-1,1.9122764E-2,-5.314545E-1,6.781378E-3,1.5375185E-4,-1.5322229E-2,-4.6329156E-2,1.9106851E-3],"categories":[],"categories_nodes":[],"categories_segments":[],"categories_sizes":[],"default_left":[0,0,0,0,0,0,0,0,0,0,0,0,0,0,0],"id":11,"left_children":[1,3,5,-1,-1,7,9,11,-1,13,-1,-1,-1,-1,-1],"loss_changes":[5.459255E0,1.3522024E0,1.7151079E0,0E0,0E0,1.062121E0,2.0581188E0,1.9556013E-1,0E0,1.4865241E0,0E0,0E0,0E0,0E0,0E0],"parents":[2147483647,0,0,1,1,2,2,5,5,6,6,7,7,9,9],"right_children":[2,4,6,-1,-1,8,10,12,-1,14,-1,-1,-1,-1,-1],"split_conditions":[-3.0547485E-1,1E0,-6.7484176E-1,3.300471E-2,-5.9803044E-3,1E0,1E0,6.018002E-1,1.9122764E-2,1.1887491E0,6.781378E-3,1.5375185E-4,-1.5322229E-2,-4.6329156E-2,1.9106851E-3],"split_indices":[3,21,1,0,0,23,22,3,0,9,0,0,0,0,0],"split_type":[0,0,0,0,0,0,0,0,0,0,0,0,0,0,0],"sum_hessian":[3.262509E1,1.192696E1,2.0698132E1,1.0447659E1,1.4793022E0,5.597188E0,1.5100943E1,2.8923922E0,2.7047958E0,1.2879855E1,2.221087E0,1.2129743E0,1.679418E0,1.0919173E1,1.9606826E0],"tree_param":{"num_deleted":"0","num_feature":"25","num_nodes":"15","size_leaf_vector":"1"}},{"base_weights":[6.2554866E-2,4.134311E-1,-2.3589571E-1,4.4437164E-1,-0E0,7.494347E-2,-3.8538888E-1,3.7790664E-2,-0E0,-1.1564588E-2,2.4319847E-1,-4.3473187E-1,2.580849E-4,2.2434661E-2,-1.0010913E-4,-3.3897802E-2,-0E0],"categories":[],"categories_nodes":[],"categories_segments":[],"categories_sizes":[],"default_left":[0,0,0,0,0,0,0,0,0,0,0,0,0,0,0,0,0],"id":12,"left_children":[1,3,5,7,-1,9,11,-1,-1,-1,13,15,-1,-1,-1,-1,-1],"loss_changes":[5.6081367E0,4.033432E-1,1.7790661E0,7.721529E-1,0E0,1.064019E0,6.259582E-1,0E0,0E0,0E0,3.2862657E-1,4.820943E-2,0E0,0E0,0E0,0E0,0E0],"parents":[2147483647,0,0,1,1,2,2,3,3,5,5,6,6,10,10,11,11],"right_children":[2,4,6,8,-1,10,12,-1,-1,-1,14,16,-1,-1,-1,-1,-1],"split_conditions":[-1.4844647E-1,4.367122E-1,-5.267532E-1,1E0,-0E0,-8.2271034E-1,1E0,3.7790664E-2,-0E0,-1.1564588E-2,7.239334E-1,1.1248897E0,2.580849E-4,2.2434661E-2,-1.0010913E-4,-3.3897802E-2,-0E0],"split_indices":[3,4,4,21,0,4,21,0,0,0,3,7,0,0,0,0,0],"split_type":[0,0,0,0,0,0,0,0,0,0,0,0,0,0,0,0,0],"sum_hessian":[3.351991E1,1.4290945E1,1.9228966E1,1.3068662E1,1.2222836E0,6.940275E0,1.228869E1,1.1092242E1,1.9764194E0,2.2344666E0,4.705809E0,1.0827581E1,1.4611082E0,3.4627144E0,1.2430944E0,9.606461E0,1.2211214E0],"tree_param":{"num_deleted":"0","num_feature":"25","num_nodes":"17","size_leaf_vector":"1"}},{"base_weights":[2.1075873E-2,4.3942982E-1,-2.7011243E-1,5.2959526E-1,-2.4756764E-3,-3.947349E-1,1.5846387E-1,4.2023446E-2,-0E0,-4.940994E-1,5.9945058E-2,-7.6757785E-4,1.6449701E-2,-4.3555584E-2,3.3919758E-3,-6.0380152E-3,1.3668511E-2],"categories":[],"categories_nodes":[],"categories_segments":[],"categories_sizes":[],"default_left":[0,0,0,0,0,0,0,0,0,0,0,0,0,0,0,0,0],"id":13,"left_children":[1,3,5,7,-1,9,11,-1,-1,13,15,-1,-1,-1,-1,-1,-1],"loss_changes":[6.5646715E0,1.3344908E0,2.3963196E0,9.54752E-2,0E0,1.7395797E0,2.4742767E-1,0E0,0E0,1.6230063E0,4.1374993E-1,0E0,0E0,0E0,0E0,0E0,0E0],"parents":[2147483647,0,0,1,1,2,2,3,3,5,5,6,6,9,9,10,10],"right_children":[2,4,6,8,-1,10,12,-1,-1,14,16,-1,-1,-1,-1,-1,-1],"split_conditions":[-2.9675105E-1,1E0,1.0104991E0,-4.8229657E-2,-2.4756764E-3,7.8876764E-1,-7.749293E-1,4.2023446E-2,-0E0,9.5693535E-1,-4.4916156E-1,-7.6757785E-4,1.6449701E-2,-4.3555584E-2,3.3919758E-3,-6.0380152E-3,1.3668511E-2],"split_indices":[3,21,0,4,0,2,4,0,0,7,0,0,0,0,0,0,0],"split_type":[0,0,0,0,0,0,0,0,0,0,0,0,0,0,0,0,0],"sum_hessian":[3.355379E1,1.2280196E1,2.1273594E1,1.0050218E1,2.2299788E0,1.7861635E1,3.4119577E0,8.310883E0,1.7393352E0,1.47143345E1,3.147301E0,1.2288493E0,2.1831083E0,1.2747824E1,1.9665105E0,1.4251271E0,1.7221738E0],"tree_param":{"num_deleted":"0","num_feature":"25","num_nodes":"17","size_leaf_vector":"1"}},{"base_weights":[-9.725507E-2,2.8590718E-1,-3.888132E-1,4.4723722E-1,-9.458709E-2,3.2929387E-2,-5.174148E-1,4.7261834E-1,-0E0,-1.7569695E-1,3.1792321E-3,-1.1913158E-1,1.543571E-2,-5.7720584E-1,-0E0,-0E0,3.862561E-2,-1.8087914E-2,7.7792176E-4,2.364445E-3,-1.5123879E-2,-4.68294E-2,-0E0,9.492423E-3,-1.1486231E-2],"categories":[],"categories_nodes":[],"categories_segments":[],"categories_sizes":[],"default_left":[0,0,0,0,0,0,0,0,0,0,0,0,0,0,0,0,0,0,0,0,0,0,0,0,0],"id":14,"left_children":[1,3,5,7,9,11,13,15,-1,17,-1,19,-1,21,23,-1,-1,-1,-1,-1,-1,-1,-1,-1,-1],"loss_changes":[5.8966475E0,2.013813E0,1.9476085E0,1.7354488E-1,2.9152644E-1,6.847316E-1,4.956193E-1,2.143557E-1,0E0,2.7925205E-1,0E0,2.983529E-1,0E0,3.6952066E-1,4.5699823E-1,0E0,0E0,0E0,0E0,0E0,0E0,0E0,0E0,0E0,0E0],"parents":[2147483647,0,0,1,1,2,2,3,3,4,4,5,5,6,6,7,7,9,9,11,11,13,13,14,14],"right_children":[2,4,6,8,10,12,14,16,-1,18,-1,20,-1,22,24,-1,-1,-1,-1,-1,-1,-1,-1,-1,-1],"split_conditions":[-5.9592867E-1,6.96485E-2,-2.9675105E-1,1E0,1.9611976E-1,3.2675898E-1,8.62966E-1,-8.684946E-1,-0E0,-3.4020063E-1,3.1792321E-3,-1.0792357E0,1.543571E-2,1E0,1.0565413E0,-0E0,3.862561E-2,-1.8087914E-2,7.7792176E-4,2.364445E-3,-1.5123879E-2,-4.68294E-2,-0E0,9.492423E-3,-1.1486231E-2],"split_indices":[4,3,3,22,9,2,2,4,0,8,0,10,0,21,2,0,0,0,0,0,0,0,0,0,0],"split_type":[0,0,0,0,0,0,0,0,0,0,0,0,0,0,0,0,0,0,0,0,0,0,0,0,0],"sum_hessian":[3.244086E1,1.3471719E1,1.8969143E1,9.013521E0,4.4581976E0,5.398298E0,1.3570845E1,7.8031287E0,1.2103928E0,2.9688694E0,1.4893283E0,3.197443E0,2.2008548E0,1.04281025E1,3.1427429E0,1.9198004E0,5.8833284E0,1.7240129E0,1.2448566E0,1.4724765E0,1.7249664E0,8.500683E0,1.9274194E0,1.2205878E0,1.922155E0],"tree_param":{"num_deleted":"0","num_feature":"25","num_nodes":"25","size_leaf_vector":"1"}},{"base_weights":[-1.0858756E-2,2.4526429E-1,-3.3707723E-1,4.425037E-1,-1.4219773E-1,-4.3292287E-1,6.6676117E-3,3.593608E-2,-0E0,-2.0039481E-1,2.0714782E-3,-4.95384E-1,2.5086165E-3,-1.9306263E-2,-0E0,-4.324269E-2,1.7933683E-4],"categories":[],"categories_nodes":[],"categories_segments":[],"categories_sizes":[],"default_left":[0,0,0,0,0,0,0,0,0,0,0,0,0,0,0,0,0],"id":15,"left_children":[1,3,5,7,9,11,-1,-1,-1,13,-1,15,-1,-1,-1,-1,-1],"loss_changes":[4.542336E0,3.027304E0,1.5216727E0,3.530321E-1,2.9528743E-1,1.0125751E0,0E0,0E0,0E0,1.6091329E-1,0E0,1.0959206E0,0E0,0E0,0E0,0E0,0E0],"parents":[2147483647,0,0,1,1,2,2,3,3,4,4,5,5,9,9,11,11],"right_children":[2,4,6,8,10,12,-1,-1,-1,14,-1,16,-1,-1,-1,-1,-1],"split_conditions":[-2.122541E-1,1.3071509E-1,1E0,1E0,5.6881064E-1,1.2891973E0,6.6676117E-3,3.593608E-2,-0E0,-8.0844736E-1,2.0714782E-3,1.0990567E0,2.5086165E-3,-1.9306263E-2,-0E0,-4.324269E-2,1.7933683E-4],"split_indices":[4,3,21,21,2,11,0,0,0,4,0,3,0,0,0,0,0],"split_type":[0,0,0,0,0,0,0,0,0,0,0,0,0,0,0,0,0],"sum_hessian":[3.400324E1,1.970796E1,1.4295278E1,1.2845756E1,6.862203E0,1.2346214E1,1.9490632E0,1.1131973E1,1.7137827E0,5.631255E0,1.230948E0,1.1141684E1,1.2045308E0,1.9633578E0,3.6678975E0,9.001755E0,2.139929E0],"tree_param":{"num_deleted":"0","num_feature":"25","num_nodes":"17","size_leaf_vector":"1"}},{"base_weights":[1.3639055E-2,3.6899772E-1,-2.8418857E-1,4.5016018E-1,-0E0,-3.58806E-1,3.1753875E-2,-1.4855498E-3,3.9060127E-2,1.2999008E-2,-1.6608539E-1,-4.401128E-1,3.9665126E-3,9.156444E-3,-3.7007544E-3,-1.6808474E-2,2.6377093E-4,-3.5947535E-2,-0E0,1.0875024E-2,-8.193949E-3],"categories":[],"categories_nodes":[],"categories_segments":[],"categories_sizes":[],"default_left":[0,0,0,0,0,0,0,0,0,0,0,0,0,0,0,0,0,0,0,0,0],"id":16,"left_children":[1,3,5,7,9,11,13,-1,-1,-1,15,17,19,-1,-1,-1,-1,-1,-1,-1,-1],"loss_changes":[5.4924436E0,7.740567E-1,9.0499544E-1,9.644084E-1,6.897133E-1,9.189129E-1,1.8831846E-1,0E0,0E0,0E0,2.2446513E-1,3.8837242E-1,3.855838E-1,0E0,0E0,0E0,0E0,0E0,0E0,0E0,0E0],"parents":[2147483647,0,0,1,1,2,2,3,3,4,4,5,5,6,6,10,10,11,11,12,12],"right_children":[2,4,6,8,10,12,14,-1,-1,-1,16,18,20,-1,-1,-1,-1,-1,-1,-1,-1],"split_conditions":[-1.6589406E-1,-1.03668295E-1,8.1086224E-1,-8.4475344E-1,-1.1691309E0,7.880811E-1,1.8748312E-1,-1.4855498E-3,3.9060127E-2,1.2999008E-2,5.191881E-1,9.5693535E-1,-4.773461E-2,9.156444E-3,-3.7007544E-3,-1.6808474E-2,2.6377093E-4,-3.5947535E-2,-0E0,1.0875024E-2,-8.193949E-3],"split_indices":[3,5,2,6,3,6,6,0,0,0,1,7,11,0,0,0,0,0,0,0,0],"split_type":[0,0,0,0,0,0,0,0,0,0,0,0,0,0,0,0,0,0,0,0,0],"sum_hessian":[3.1646917E1,1.3991241E1,1.7655674E1,9.939816E0,4.0514255E0,1.4273877E1,3.3817976E0,1.4073837E0,8.532433E0,1.420902E0,2.6305237E0,1.0876505E1,3.3973725E0,1.702377E0,1.6794205E0,1.4622282E0,1.1682954E0,9.393163E0,1.4833424E0,1.940354E0,1.4570184E0],"tree_param":{"num_deleted":"0","num_feature":"25","num_nodes":"21","size_leaf_vector":"1"}},{"base_weights":[9.990507E-3,3.243915E-1,-3.3502588E-1,5.288945E-1,-1.2320929E-1,-4.1884694E-1,7.3122275E-3,1.0248076E-3,4.5198012E-2,-2.3598927E-1,6.292522E-3,-0E0,-3.9435696E-2,1.2489345E-2,-1.0559893E-2,-2.2030786E-2,-0E0,-1.4599625E-2,1.596592E-2],"categories":[],"categories_nodes":[],"categories_segments":[],"categories_sizes":[],"default_left":[0,0,0,0,0,0,0,0,0,0,0,0,0,0,0,0,0,0,0],"id":17,"left_children":[1,3,5,7,9,11,-1,13,-1,15,-1,17,-1,-1,-1,-1,-1,-1,-1],"loss_changes":[5.615725E0,3.3498514E0,1.4209468E0,5.563059E-1,6.381889E-1,9.9369574E-1,0E0,5.549558E-1,0E0,3.079167E-1,0E0,1.0178576E0,0E0,0E0,0E0,0E0,0E0,0E0,0E0],"parents":[2147483647,0,0,1,1,2,2,3,3,4,4,5,5,7,7,9,9,11,11],"right_children":[2,4,6,8,10,12,-1,14,-1,16,-1,18,-1,-1,-1,-1,-1,-1,-1],"split_conditions":[-2.122541E-1,1.21991284E-1,1.4540681E0,-1.5385447E-1,8.9095324E-1,-1.024895E-1,7.3122275E-3,-1.0555326E-1,4.5198012E-2,3.119193E-1,6.292522E-3,-3.1238326E-1,-3.9435696E-2,1.2489345E-2,-1.0559893E-2,-2.2030786E-2,-0E0,-1.4599625E-2,1.596592E-2],"split_indices":[4,3,10,0,7,11,0,9,0,2,0,11,0,0,0,0,0,0,0],"split_type":[0,0,0,0,0,0,0,0,0,0,0,0,0,0,0,0,0,0,0],"sum_hessian":[3.1793177E1,1.7592316E1,1.4200862E1,1.1480781E1,6.111534E0,1.2978521E1,1.2223405E0,3.3098896E0,8.170891E0,4.3754926E0,1.7360415E0,4.709281E0,8.26924E0,2.1111636E0,1.1987259E0,2.9136815E0,1.4618113E0,3.0132058E0,1.6960753E0],"tree_param":{"num_deleted":"0","num_feature":"25","num_nodes":"19","size_leaf_vector":"1"}},{"base_weights":[3.7174683E-2,3.2595935E-1,-2.6701382E-1,3.8621995E-1,-6.2771193E-3,4.3497533E-2,-3.9773914E-1,4.3988958E-1,-2.3245288E-3,8.0761425E-3,-1.1407475E-2,3.1441882E-1,-1.9014454E-2,-4.634505E-1,2.1350328E-3,3.7970237E-2,-0E0,-0E0,2.6121823E-2,-3.9607406E-2,7.53183E-4],"categories":[],"categories_nodes":[],"categories_segments":[],"categories_sizes":[],"default_left":[0,0,0,0,0,0,0,0,0,0,0,0,0,0,0,0,0,0,0,0,0],"id":18,"left_children":[1,3,5,7,9,11,13,15,-1,-1,-1,17,-1,19,-1,-1,-1,-1,-1,-1,-1],"loss_changes":[4.657116E0,7.3012996E-1,1.364206E0,8.529494E-1,3.9555258E-1,2.0774305E0,8.763428E-1,8.1878805E-1,0E0,0E0,0E0,1.1816871E-1,0E0,8.3460045E-1,0E0,0E0,0E0,0E0,0E0,0E0,0E0],"parents":[2147483647,0,0,1,1,2,2,3,3,4,4,5,5,6,6,7,7,11,11,13,13],"right_children":[2,4,6,8,10,12,14,16,-1,-1,-1,18,-1,20,-1,-1,-1,-1,-1,-1,-1],"split_conditions":[8.581906E-3,1E0,-1.3373724E-1,1E0,-6.5721434E-1,-1.0461867E-1,-1.0263043E-1,-9.0225235E-2,-2.3245288E-3,8.0761425E-3,-1.1407475E-2,6.018002E-1,-1.9014454E-2,1E0,2.1350328E-3,3.7970237E-2,-0E0,-0E0,2.6121823E-2,-3.9607406E-2,7.53183E-4],"split_indices":[3,21,10,17,10,5,5,5,0,0,0,3,0,22,0,0,0,0,0,0,0],"split_type":[0,0,0,0,0,0,0,0,0,0,0,0,0,0,0,0,0,0,0,0,0],"sum_hessian":[3.2821934E1,1.7187304E1,1.5634632E1,1.4256608E1,2.9306955E0,5.6451735E0,9.989458E0,1.3051337E1,1.2052703E0,1.4712003E0,1.4594951E0,3.3806298E0,2.2645438E0,8.760741E0,1.2287173E0,1.0704391E1,2.3469465E0,1.4401761E0,1.9404536E0,7.527806E0,1.2329354E0],"tree_param":{"num_deleted":"0","num_feature":"25","num_nodes":"21","size_leaf_vector":"1"}},{"base_weights":[2.099159E-2,3.352369E-1,-3.251285E-1,4.6335968E-1,-1.47203235E-2,-4.0683576E-1,7.129549E-3,5.580916E-1,-5.152266E-3,-4.724382E-1,1.0837553E-3,-0E0,4.7865734E-2,-3.9665498E-2,-0E0],"categories":[],"categories_nodes":[],"categories_segments":[],"categories_sizes":[],"default_left":[0,0,0,0,0,0,0,0,0,0,0,0,0,0,0],"id":19,"left_children":[1,3,5,7,-1,9,-1,11,-1,13,-1,-1,-1,-1,-1],"loss_changes":[5.632068E0,2.8873549E0,1.351742E0,1.886373E0,0E0,9.003589E-1,0E0,8.6247873E-1,0E0,5.025506E-1,0E0,0E0,0E0,0E0,0E0],"parents":[2147483647,0,0,1,1,2,2,3,3,5,5,7,7,9,9],"right_children":[2,4,6,8,-1,10,-1,12,-1,14,-1,-1,-1,-1,-1],"split_conditions":[-3.0638987E-1,1E0,1.4540681E0,1E0,-1.47203235E-2,1E0,7.129549E-3,-8.5551524E-1,-5.152266E-3,5.4388195E-1,1.0837553E-3,-0E0,4.7865734E-2,-3.9665498E-2,-0E0],"split_indices":[4,21,10,17,0,21,0,4,0,6,0,0,0,0,0],"split_type":[0,0,0,0,0,0,0,0,0,0,0,0,0,0,0],"sum_hessian":[3.1720694E1,1.7434687E1,1.4286007E1,1.5717075E1,1.7176107E0,1.3068157E1,1.2178491E0,1.3601291E1,2.1157851E0,1.1129294E1,1.9388632E0,3.3313847E0,1.0269906E1,8.754219E0,2.3750756E0],"tree_param":{"num_deleted":"0","num_feature":"25","num_nodes":"15","size_leaf_vector":"1"}},{"base_weights":[-3.824519E-2,2.7765128E-1,-3.8302287E-1,-8.266385E-2,4.7588184E-1,-4.6450052E-1,3.974667E-3,1.0865483E-2,-2.241298E-1,-0E0,3.9060242E-2,-5.110945E-1,-0E0,-2.3090988E-2,2.6124595E-3,-0E0,-4.002084E-2],"categories":[],"categories_nodes":[],"categories_segments":[],"categories_sizes":[],"default_left":[0,0,0,0,0,0,0,0,0,0,0,0,0,0,0,0,0],"id":20,"left_children":[1,3,5,7,9,11,-1,-1,13,-1,-1,15,-1,-1,-1,-1,-1],"loss_changes":[5.8373256E0,2.547147E0,1.3300114E0,9.242652E-1,4.230628E-1,6.867051E-1,0E0,0E0,5.647509E-1,0E0,0E0,9.855175E-2,0E0,0E0,0E0,0E0,0E0],"parents":[2147483647,0,0,1,1,2,2,3,3,4,4,5,5,8,8,11,11],"right_children":[2,4,6,8,10,12,-1,-1,14,-1,-1,16,-1,-1,-1,-1,-1],"split_conditions":[-3.0638987E-1,1.9207667E-1,1E0,-3.8560474E-1,-4.886578E-1,1.0177801E0,3.974667E-3,1.0865483E-2,6.608166E-1,-0E0,3.9060242E-2,-9.78733E-1,-0E0,-2.3090988E-2,2.6124595E-3,-0E0,-4.002084E-2],"split_indices":[4,0,21,1,9,9,0,0,2,0,0,6,0,0,0,0,0],"split_type":[0,0,0,0,0,0,0,0,0,0,0,0,0,0,0,0,0],"sum_hessian":[3.3419994E1,1.781282E1,1.5607174E1,7.6295457E0,1.0183275E1,1.3418045E1,2.1891289E0,1.6920487E0,5.937497E0,1.6761755E0,8.507099E0,1.1971715E1,1.4463303E0,4.3303156E0,1.6071818E0,1.3624799E0,1.0609235E1],"tree_param":{"num_deleted":"0","num_feature":"25","num_nodes":"17","size_leaf_vector":"1"}},{"base_weights":[-4.9035054E-2,1.3722585E-1,-3.1795904E-2,3.2407185E-1,-2.5822483E-2,-1.1374824E-1,4.563039E-1,8.060264E-3,-2.0672394E-2,3.823485E-2,-1.586724E-3],"categories":[],"categories_nodes":[],"categories_segments":[],"categories_sizes":[],"default_left":[0,0,0,0,0,0,0,0,0,0,0],"id":21,"left_children":[1,3,-1,5,-1,7,9,-1,-1,-1,-1],"loss_changes":[3.5393553E0,4.1572914E0,0E0,2.4164984E0,0E0,8.744261E-1,9.617052E-1,0E0,0E0,0E0,0E0],"parents":[2147483647,0,0,1,1,3,3,5,5,6,6],"right_children":[2,4,-1,6,-1,8,10,-1,-1,-1,-1],"split_conditions":[6.3639414E-1,1.0030949E0,-3.1795904E-2,-8.2271034E-1,-2.5822483E-2,-8.9944524E-1,1E0,8.060264E-3,-2.0672394E-2,3.823485E-2,-1.586724E-3],"split_indices":[4,3,0,4,0,4,20,0,0,0,0],"split_type":[0,0,0,0,0,0,0,0,0,0,0],"sum_hessian":[3.0754942E1,2.3991842E1,6.7630997E0,2.0258562E1,3.7332797E0,4.277515E0,1.5981048E1,2.1039128E0,2.1736019E0,1.462286E1,1.3581873E0],"tree_param":{"num_deleted":"0","num_feature":"25","num_nodes":"11","size_leaf_vector":"1"}},{"base_weights":[-3.0829343E-3,-2.8506646E-1,1.67108E-1,6.200087E-3,-3.8003972E-1,3.362303E-1,-1.8530236E-1,-4.4149792E-1,1.4600185E-3,4.2946357E-1,-4.3018147E-2,-2.270832E-2,5.424081E-3,-2.5594988E-4,-3.7988033E-2,-1.7803567E-3,3.644261E-2,-1.3263956E-2,7.2872858E-3],"categories":[],"categories_nodes":[],"categories_segments":[],"categories_sizes":[],"default_left":[0,0,0,0,0,0,0,0,0,0,0,0,0,0,0,0,0,0,0],"id":22,"left_children":[1,3,5,-1,7,9,11,13,-1,15,17,-1,-1,-1,-1,-1,-1,-1,-1],"loss_changes":[2.5868955E0,1.1657552E0,2.602614E0,0E0,7.372422E-1,1.2713871E0,7.978318E-1,2.6902318E-1,0E0,8.795681E-1,4.5365617E-1,0E0,0E0,0E0,0E0,0E0,0E0,0E0,0E0],"parents":[2147483647,0,0,1,1,2,2,4,4,5,5,6,6,7,7,9,9,10,10],"right_children":[2,4,6,-1,8,10,12,14,-1,16,18,-1,-1,-1,-1,-1,-1,-1,-1],"split_conditions":[-1.5385447E-1,-7.4166477E-1,2.2276726E-1,6.200087E-3,1.3630527E0,-1.03668295E-1,7.4490815E-1,-1.11615315E-1,1.4600185E-3,-8.3055496E-1,4.1108355E-1,-2.270832E-2,5.424081E-3,-2.5594988E-4,-3.7988033E-2,-1.7803567E-3,3.644261E-2,-1.3263956E-2,7.2872858E-3],"split_indices":[0,3,4,0,10,5,2,11,0,4,7,0,0,0,0,0,0,0,0],"split_type":[0,0,0,0,0,0,0,0,0,0,0,0,0,0,0,0,0,0,0],"sum_hessian":[3.2932247E1,1.0795119E1,2.2137127E1,1.567977E0,9.227142E0,1.6084164E1,6.052964E0,8.007313E0,1.2198296E0,1.2747595E1,3.3365679E0,4.110732E0,1.9422319E0,3.2011917E0,4.8061213E0,1.1669551E0,1.158064E1,1.9300814E0,1.4064866E0],"tree_param":{"num_deleted":"0","num_feature":"25","num_nodes":"19","size_leaf_vector":"1"}},{"base_weights":[1.7959422E-3,2.7562416E-1,-2.9628745E-1,-3.0202528E-2,4.4056502E-1,2.2513678E-2,-4.2551947E-1,-2.1817255E-1,1.4172389E-2,-0E0,3.8425684E-2,2.1739353E-1,-1.5306546E-1,-4.0504597E-2,6.9370586E-3,-2.097065E-2,8.281741E-4,1.8850505E-2,-0E0,-1.4247341E-2,-0E0],"categories":[],"categories_nodes":[],"categories_segments":[],"categories_sizes":[],"default_left":[0,0,0,0,0,0,0,0,0,0,0,0,0,0,0,0,0,0,0,0,0],"id":23,"left_children":[1,3,5,7,9,11,13,15,-1,-1,-1,17,19,-1,-1,-1,-1,-1,-1,-1,-1],"loss_changes":[4.2367263E0,1.7108665E0,1.2637591E0,1.1720254E0,8.2512355E-1,8.9134455E-1,1.7801538E0,3.5987234E-1,0E0,0E0,0E0,1.2345624E-1,1.20301574E-1,0E0,0E0,0E0,0E0,0E0,0E0,0E0,0E0],"parents":[2147483647,0,0,1,1,2,2,3,3,4,4,5,5,6,6,7,7,11,11,12,12],"right_children":[2,4,6,8,10,12,14,16,-1,-1,-1,18,20,-1,-1,-1,-1,-1,-1,-1,-1],"split_conditions":[-2.122541E-1,1.9207667E-1,-1.024895E-1,7.1548134E-1,-8.5551524E-1,6.3639414E-1,1.5758069E0,6.608166E-1,1.4172389E-2,-0E0,3.8425684E-2,-1.078787E-1,-2.4242511E-1,-4.0504597E-2,6.9370586E-3,-2.097065E-2,8.281741E-4,1.8850505E-2,-0E0,-1.4247341E-2,-0E0],"split_indices":[4,0,11,6,4,4,10,2,0,0,0,2,2,0,0,0,0,0,0,0,0],"split_type":[0,0,0,0,0,0,0,0,0,0,0,0,0,0,0,0,0,0,0,0,0],"sum_hessian":[3.200834E1,1.7819204E1,1.4189136E1,8.202E0,9.617204E0,5.525509E0,8.663626E0,5.46891E0,2.7330894E0,1.8764626E0,7.7407413E0,2.6380324E0,2.8874764E0,7.4529066E0,1.2107195E0,4.0761704E0,1.3927399E0,1.4683187E0,1.1697137E0,1.7616524E0,1.1258242E0],"tree_param":{"num_deleted":"0","num_feature":"25","num_nodes":"21","size_leaf_vector":"1"}},{"base_weights":[9.649178E-2,2.5785673E-1,-2.748513E-1,4.570918E-1,-0E0,-2.8634468E-2,2.3478368E-2,-1.4721348E-3,5.2673477E-1,-2.3758842E-1,2.3623072E-1,6.6632545E-3,-2.0576268E-3,-0E0,4.14976E-2,-2.5274366E-2,3.917855E-3,-1.0444461E-2,2.9960295E-2],"categories":[],"categories_nodes":[],"categories_segments":[],"categories_sizes":[],"default_left":[0,0,0,0,0,0,0,0,0,0,0,0,0,0,0,0,0,0,0],"id":24,"left_children":[1,3,5,7,9,-1,11,-1,13,15,17,-1,-1,-1,-1,-1,-1,-1,-1],"loss_changes":[3.183045E0,1.8626378E0,7.656578E-1,9.826646E-1,1.9549814E0,0E0,9.240054E-2,0E0,1.4934063E-1,8.0122846E-1,1.7058127E0,0E0,0E0,0E0,0E0,0E0,0E0,0E0,0E0],"parents":[2147483647,0,0,1,1,2,2,3,3,4,4,6,6,8,8,9,9,10,10],"right_children":[2,4,6,8,10,-1,12,-1,14,16,18,-1,-1,-1,-1,-1,-1,-1,-1],"split_conditions":[6.3639414E-1,-8.423787E-2,3.5116202E-1,-8.684946E-1,6.367015E-1,-2.8634468E-2,-3.9991495E-1,-1.4721348E-3,-1.5715995E0,7.8876764E-1,-4.2384952E-1,6.6632545E-3,-2.0576268E-3,-0E0,4.14976E-2,-2.5274366E-2,3.917855E-3,-1.0444461E-2,2.9960295E-2],"split_indices":[4,11,2,4,11,0,6,0,10,2,0,0,0,0,0,0,0,0,0],"split_type":[0,0,0,0,0,0,0,0,0,0,0,0,0,0,0,0,0,0,0],"sum_hessian":[3.141316E1,2.4826332E1,6.586829E0,9.998014E0,1.4828318E1,3.8724349E0,2.714394E0,1.4125278E0,8.585487E0,7.7034707E0,7.1248465E0,1.5999546E0,1.1144395E0,1.1640134E0,7.421474E0,5.6478276E0,2.0556433E0,1.7931017E0,5.3317447E0],"tree_param":{"num_deleted":"0","num_feature":"25","num_nodes":"19","size_leaf_vector":"1"}},{"base_weights":[9.465524E-3,2.936972E-1,-2.043385E-1,-1.1243459E-2,3.9768305E-1,6.881048E-2,-3.1540456E-1,1.0888306E-2,-1.8243498E-1,3.361066E-2,-0E0,-8.230832E-2,1.56067405E-2,-3.7355784E-1,-0E0,-1.651528E-2,-0E0,1.3750122E-3,-1.1037038E-2,-0E0,-3.2426815E-2,-8.920364E-3,9.025606E-3],"categories":[],"categories_nodes":[],"categories_segments":[],"categories_sizes":[],"default_left":[0,0,0,0,0,0,0,0,0,0,0,0,0,0,0,0,0,0,0,0,0,0,0],"id":25,"left_children":[1,3,5,7,9,11,13,-1,15,-1,-1,17,-1,19,21,-1,-1,-1,-1,-1,-1,-1,-1],"loss_changes":[3.1634922E0,9.319191E-1,1.1943916E0,6.6703993E-1,5.1953554E-1,5.4730606E-1,4.7897935E-1,0E0,1.3293937E-1,0E0,0E0,1.6626158E-1,0E0,3.3888817E-1,3.3153433E-1,0E0,0E0,0E0,0E0,0E0,0E0,0E0,0E0],"parents":[2147483647,0,0,1,1,2,2,3,3,4,4,5,5,6,6,8,8,11,11,13,13,14,14],"right_children":[2,4,6,8,10,12,14,-1,16,-1,-1,18,-1,20,22,-1,-1,-1,-1,-1,-1,-1,-1],"split_conditions":[-6.109048E-1,-8.2271034E-1,-2.9675105E-1,-9.192708E-1,7.239334E-1,3.2675898E-1,4.958211E-1,1.0888306E-2,-1.1420591E-2,3.361066E-2,-0E0,-1.0792357E0,1.56067405E-2,-8.6838764E-1,-8.797333E-1,-1.651528E-2,-0E0,1.3750122E-3,-1.1037038E-2,-0E0,-3.2426815E-2,-8.920364E-3,9.025606E-3],"split_indices":[4,4,3,4,3,2,0,0,10,0,0,10,0,9,6,0,0,0,0,0,0,0,0],"split_type":[0,0,0,0,0,0,0,0,0,0,0,0,0,0,0,0,0,0,0,0,0,0,0],"sum_hessian":[3.1556023E1,1.2796544E1,1.875948E1,4.482028E0,8.314516E0,5.4158063E0,1.3343674E1,1.8516301E0,2.6303978E0,7.0977416E0,1.2167743E0,3.07202E0,2.343786E0,1.0073807E1,3.269867E0,1.470206E0,1.1601917E0,1.4215332E0,1.650487E0,3.1885285E0,6.885278E0,1.1332046E0,2.1366622E0],"tree_param":{"num_deleted":"0","num_feature":"25","num_nodes":"23","size_leaf_vector":"1"}},{"base_weights":[-3.4108065E-2,1.527351E-1,-3.20669E-2,2.659135E-1,-1.774891E-1,-0E0,3.745343E-2,3.351991E-3,-2.0212866E-2,1.5665013E-2,-1.6982334E-2],"categories":[],"categories_nodes":[],"categories_segments":[],"categories_sizes":[],"default_left":[0,0,0,0,0,0,0,0,0,0,0],"id":26,"left_children":[1,3,-1,5,7,9,-1,-1,-1,-1,-1],"loss_changes":[3.7002747E0,1.7701031E0,0E0,1.8754067E0,4.9192593E-1,1.597858E0,0E0,0E0,0E0,0E0,0E0],"parents":[2147483647,0,0,1,1,3,3,4,4,5,5],"right_children":[2,4,-1,6,8,10,-1,-1,-1,-1,-1],"split_conditions":[5.3655314E-1,1.0030949E0,-3.20669E-2,6.275757E-1,7.8116596E-2,-1.2530404E-1,3.745343E-2,3.351991E-3,-2.0212866E-2,1.5665013E-2,-1.6982334E-2],"split_indices":[4,3,0,11,10,11,0,0,0,0,0],"split_type":[0,0,0,0,0,0,0,0,0,0,0],"sum_hessian":[3.0003563E1,2.372729E1,6.276273E0,2.0080385E1,3.6469035E0,1.3947576E1,6.1328106E0,1.1971614E0,2.449742E0,7.5740275E0,6.3735476E0],"tree_param":{"num_deleted":"0","num_feature":"25","num_nodes":"11","size_leaf_vector":"1"}},{"base_weights":[-1.9691266E-2,-1.9554728E-1,3.0678296E-1,-3.960808E-1,5.114698E-2,2.7654657E-2,-8.5240166E-4,2.2035187E-2,-4.1017473E-2,2.3544388E-1,-1.698803E-2,-8.750341E-3,1.3937923E-2,2.3931714E-2,-1.0862416E-3],"categories":[],"categories_nodes":[],"categories_segments":[],"categories_sizes":[],"default_left":[0,0,0,0,0,0,0,0,0,0,0,0,0,0,0],"id":27,"left_children":[1,3,5,7,9,-1,-1,11,-1,13,-1,-1,-1,-1,-1],"loss_changes":[2.9229543E0,2.02071E0,5.3280985E-1,1.6378531E0,1.7132239E0,0E0,0E0,5.687376E-1,0E0,5.821408E-1,0E0,0E0,0E0,0E0,0E0],"parents":[2147483647,0,0,1,1,2,2,3,3,4,4,7,7,9,9],"right_children":[2,4,6,8,10,-1,-1,12,-1,14,-1,-1,-1,-1,-1],"split_conditions":[7.4490815E-1,2.00514E-1,1.4091482E0,-8.464189E-1,2.2276726E-1,2.7654657E-2,-8.5240166E-4,-1.3941442E0,-4.1017473E-2,1.3071509E-1,-1.698803E-2,-8.750341E-3,1.3937923E-2,2.3931714E-2,-1.0862416E-3],"split_indices":[2,0,1,9,4,0,0,0,0,3,0,0,0,0,0],"split_type":[0,0,0,0,0,0,0,0,0,0,0,0,0,0,0],"sum_hessian":[3.1286388E1,2.3786606E1,7.4997816E0,1.0731482E1,1.3055124E1,6.105167E0,1.3946148E0,4.320092E0,6.41139E0,9.66406E0,3.391065E0,2.4851656E0,1.8349266E0,6.481548E0,3.182511E0],"tree_param":{"num_deleted":"0","num_feature":"25","num_nodes":"15","size_leaf_vector":"1"}},{"base_weights":[2.3881141E-4,3.1765056E-1,-2.5278735E-1,-4.7639035E-2,4.620882E-1,5.58066E-2,-3.892485E-1,1.3308887E-2,-1.974853E-2,4.016227E-2,-8.934317E-4,-1.1797511E-2,1.7898688E-2,-4.3157944E-1,-0E0,-3.416745E-2,-0E0],"categories":[],"categories_nodes":[],"categories_segments":[],"categories_sizes":[],"default_left":[0,0,0,0,0,0,0,0,0,0,0,0,0,0,0,0,0],"id":28,"left_children":[1,3,5,7,9,11,13,-1,-1,-1,-1,-1,-1,15,-1,-1,-1],"loss_changes":[4.0961413E0,1.6211109E0,1.5148876E0,1.216431E0,9.1378784E-1,1.0361105E0,4.2757344E-1,0E0,0E0,0E0,0E0,0E0,0E0,1.5818381E-1,0E0,0E0,0E0],"parents":[2147483647,0,0,1,1,2,2,3,3,4,4,5,5,6,6,13,13],"right_children":[2,4,6,8,10,12,14,-1,-1,-1,-1,-1,-1,16,-1,-1,-1],"split_conditions":[-1.4844647E-1,-2.2468107E-2,-5.502871E-1,-9.0853924E-1,1E0,-8.2271034E-1,1E0,1.3308887E-2,-1.974853E-2,4.016227E-2,-8.934317E-4,-1.1797511E-2,1.7898688E-2,1.1308881E0,-0E0,-3.416745E-2,-0E0],"split_indices":[3,2,4,10,21,4,21,0,0,0,0,0,0,7,0,0,0],"split_type":[0,0,0,0,0,0,0,0,0,0,0,0,0,0,0,0,0],"sum_hessian":[3.0660381E1,1.3212478E1,1.7447905E1,4.808655E0,8.403823E0,6.206519E0,1.1241385E1,2.2486706E0,2.559984E0,6.972645E0,1.4311777E0,2.4284081E0,3.778111E0,9.574428E0,1.6669573E0,8.424862E0,1.1495657E0],"tree_param":{"num_deleted":"0","num_feature":"25","num_nodes":"17","size_leaf_vector":"1"}},{"base_weights":[-5.0694365E-3,1.999841E-1,-2.1887347E-1,-2.4594355E-2,3.6125246E-1,6.276046E-2,-3.4896392E-1,2.0106328E-1,-2.3916608E-1,-0E0,3.1103184E-2,-1.1182786E-2,2.438117E-1,5.9603463E-4,-4.1144168E-1,-0E0,1.6553026E-2,-0E0,-2.211955E-2,-0E0,2.2854123E-2,-3.4229804E-2,-0E0],"categories":[],"categories_nodes":[],"categories_segments":[],"categories_sizes":[],"default_left":[0,0,0,0,0,0,0,0,0,0,0,0,0,0,0,0,0,0,0,0,0,0,0],"id":29,"left_children":[1,3,5,7,9,11,13,15,17,-1,-1,-1,19,-1,21,-1,-1,-1,-1,-1,-1,-1,-1],"loss_changes":[2.3174496E0,1.1737597E0,1.3185964E0,1.4232728E0,4.559884E-1,1.0108967E0,6.6832376E-1,5.3622127E-2,2.2632128E-1,0E0,0E0,0E0,3.2179737E-1,0E0,4.1576672E-1,0E0,0E0,0E0,0E0,0E0,0E0,0E0,0E0],"parents":[2147483647,0,0,1,1,2,2,3,3,4,4,5,5,6,6,7,7,8,8,12,12,14,14],"right_children":[2,4,6,8,10,12,14,16,18,-1,-1,-1,20,-1,22,-1,-1,-1,-1,-1,-1,-1,-1],"split_conditions":[8.581906E-3,5.3499734E-1,-1.3373724E-1,-1.0632524E0,-2.2468107E-2,-8.378272E-1,-5.8592063E-1,-1.8683348E0,-3.7906083E-1,-0E0,3.1103184E-2,-1.1182786E-2,6.018002E-1,5.9603463E-4,1E0,-0E0,1.6553026E-2,-0E0,-2.211955E-2,-0E0,2.2854123E-2,-3.4229804E-2,-0E0],"split_indices":[3,9,10,10,2,10,8,11,8,0,0,0,3,0,22,0,0,0,0,0,0,0,0],"split_type":[0,0,0,0,0,0,0,0,0,0,0,0,0,0,0,0,0,0,0,0,0,0,0],"sum_hessian":[3.269275E1,1.6002523E1,1.6690228E1,9.128437E0,6.8740873E0,5.87596E0,1.0814267E1,3.7901292E0,5.3383074E0,1.3381461E0,5.5359416E0,2.4505692E0,3.4253907E0,1.8978561E0,8.91641E0,1.1794949E0,2.6106343E0,2.583794E0,2.7545133E0,1.3024586E0,2.1229322E0,7.459651E0,1.4567597E0],"tree_param":{"num_deleted":"0","num_feature":"25","num_nodes":"23","size_leaf_vector":"1"}},{"base_weights":[-1.6452849E-3,2.9891607E-1,-2.6812196E-1,-3.917714E-2,4.0872917E-1,-3.5170168E-1,2.6628237E-2,9.966408E-3,-1.4933663E-2,4.5345297E-1,-0E0,-4.001247E-1,8.825818E-4,1.3626979E-2,-9.946699E-2,-0E0,3.5919268E-2,-3.2593865E-2,-0E0,-0E0,-1.0026783E-2],"categories":[],"categories_nodes":[],"categories_segments":[],"categories_sizes":[],"default_left":[0,0,0,0,0,0,0,0,0,0,0,0,0,0,0,0,0,0,0,0,0],"id":30,"left_children":[1,3,5,7,9,11,13,-1,-1,15,-1,17,-1,-1,19,-1,-1,-1,-1,-1,-1],"loss_changes":[3.945476E0,1.1527522E0,8.949574E-1,6.661755E-1,4.7679234E-1,6.133337E-1,4.9023917E-1,0E0,0E0,8.258128E-2,0E0,3.8439274E-1,0E0,0E0,7.2456405E-2,0E0,0E0,0E0,0E0,0E0,0E0],"parents":[2147483647,0,0,1,1,2,2,3,3,4,4,5,5,6,6,9,9,11,11,14,14],"right_children":[2,4,6,8,10,12,14,-1,-1,16,-1,18,-1,-1,20,-1,-1,-1,-1,-1,-1],"split_conditions":[-5.9592867E-1,-8.376865E-1,8.1086224E-1,-5.410174E-1,7.9372376E-1,1E0,5.7212263E-2,9.966408E-3,-1.4933663E-2,-5.1376194E-1,-0E0,1E0,8.825818E-4,1.3626979E-2,4.86418E-2,-0E0,3.5919268E-2,-3.2593865E-2,-0E0,-0E0,-1.0026783E-2],"split_indices":[4,4,2,3,3,18,11,0,0,8,0,15,0,0,0,0,0,0,0,0,0],"split_type":[0,0,0,0,0,0,0,0,0,0,0,0,0,0,0,0,0,0,0,0,0],"sum_hessian":[2.9418276E1,1.2502913E1,1.6915361E1,3.6929154E0,8.809998E0,1.2797175E1,4.118186E0,1.3054466E0,2.3874688E0,7.601346E0,1.2086518E0,1.1434408E1,1.3627675E0,1.4010888E0,2.7170973E0,1.3784842E0,6.222862E0,1.031022E1,1.1241884E0,1.5659589E0,1.1511383E0],"tree_param":{"num_deleted":"0","num_feature":"25","num_nodes":"21","size_leaf_vector":"1"}},{"base_weights":[-0E0,2.4108426E-1,-3.0652156E-1,4.0215218E-1,-9.4709955E-2,-3.876573E-1,6.7002815E-3,4.2539376E-1,-0E0,5.467978E-3,-1.925933E-1,-0E0,-4.3396893E-1,3.4552626E-2,-0E0,-0E0,-1.5184745E-2,-3.4268018E-2,-0E0],"categories":[],"categories_nodes":[],"categories_segments":[],"categories_sizes":[],"default_left":[0,0,0,0,0,0,0,0,0,0,0,0,0,0,0,0,0,0,0],"id":31,"left_children":[1,3,5,7,9,11,-1,13,-1,-1,15,-1,17,-1,-1,-1,-1,-1,-1],"loss_changes":[3.810634E0,2.029098E0,1.2171502E0,2.0441246E-1,4.587018E-1,5.694821E-1,0E0,2.041161E-1,0E0,0E0,5.5812597E-3,0E0,8.608961E-2,0E0,0E0,0E0,0E0,0E0,0E0],"parents":[2147483647,0,0,1,1,2,2,3,3,4,4,5,5,7,7,10,10,12,12],"right_children":[2,4,6,8,10,12,-1,14,-1,-1,16,-1,18,-1,-1,-1,-1,-1,-1],"split_conditions":[-2.122541E-1,2.4412447E-1,1.5758069E0,1E0,-4.755117E-1,-1.6706617E0,6.7002815E-3,1E0,-0E0,5.467978E-3,-8.464189E-1,-0E0,1.386942E0,3.4552626E-2,-0E0,-0E0,-1.5184745E-2,-3.4268018E-2,-0E0],"split_indices":[4,3,10,21,8,2,0,12,0,0,9,0,3,0,0,0,0,0,0],"split_type":[0,0,0,0,0,0,0,0,0,0,0,0,0,0,0,0,0,0,0],"sum_hessian":[3.1258549E1,1.8056898E1,1.3201651E1,1.1723745E1,6.3331523E0,1.2014137E1,1.1875135E0,1.0544419E1,1.1793256E0,1.6821936E0,4.6509585E0,1.4239669E0,1.059017E1,8.573789E0,1.9706314E0,1.1878687E0,3.46309E0,9.085755E0,1.5044148E0],"tree_param":{"num_deleted":"0","num_feature":"25","num_nodes":"19","size_leaf_vector":"1"}},{"base_weights":[-1.1574407E-2,2.0843023E-1,-2.4063358E-1,-5.9295136E-2,3.2623738E-1,-3.6911562E-1,8.7146685E-2,1.4589839E-2,-2.0353641E-2,3.656203E-1,-0E0,-4.0329602E-1,-0E0,1.9303147E-2,-9.765645E-3,3.0606503E-2,-0E0,-1.974173E-3,-3.4671377E-2],"categories":[],"categories_nodes":[],"categories_segments":[],"categories_sizes":[],"default_left":[0,0,0,0,0,0,0,0,0,0,0,0,0,0,0,0,0,0,0],"id":32,"left_children":[1,3,5,7,9,11,13,-1,-1,15,-1,17,-1,-1,-1,-1,-1,-1,-1],"loss_changes":[2.5683594E0,1.1015451E0,1.5175196E0,1.3640755E0,4.0403652E-1,3.82761E-1,9.1546696E-1,0E0,0E0,3.3714318E-1,0E0,1.09868765E-1,0E0,0E0,0E0,0E0,0E0,0E0,0E0],"parents":[2147483647,0,0,1,1,2,2,3,3,4,4,5,5,6,6,9,9,11,11],"right_children":[2,4,6,8,10,12,14,-1,-1,16,-1,18,-1,-1,-1,-1,-1,-1,-1],"split_conditions":[-5.196217E-1,-8.2271034E-1,-1.17839776E-1,-9.182724E-1,1E0,1.2663828E0,2.5258753E0,1.4589839E-2,-2.0353641E-2,1E0,-0E0,-1.024895E-1,-0E0,1.9303147E-2,-9.765645E-3,3.0606503E-2,-0E0,-1.974173E-3,-3.4671377E-2],"split_indices":[4,4,8,4,17,11,8,0,0,21,0,11,0,0,0,0,0,0,0],"split_type":[0,0,0,0,0,0,0,0,0,0,0,0,0,0,0,0,0,0,0],"sum_hessian":[3.0741121E1,1.5192858E1,1.5548264E1,5.057122E0,1.01357355E1,1.1196022E1,4.352241E0,1.7587419E0,3.2983801E0,9.053965E0,1.0817707E0,1.0108751E1,1.0872711E0,2.5166035E0,1.8356377E0,7.4091735E0,1.6447915E0,4.2543497E0,5.8544016E0],"tree_param":{"num_deleted":"0","num_feature":"25","num_nodes":"19","size_leaf_vector":"1"}},{"base_weights":[-1.3345337E-2,1.7627162E-1,-3.146804E-1,-2.1890067E-1,3.6973724E-1,-3.9208233E-1,2.3094947E-3,-2.7034935E-2,7.925737E-3,-3.0893262E-3,4.417598E-1,-3.3900823E-2,-0E0,5.4237517E-3,-8.4931115E-3,3.8693596E-2,-3.187572E-4],"categories":[],"categories_nodes":[],"categories_segments":[],"categories_sizes":[],"default_left":[0,0,0,0,0,0,0,0,0,0,0,0,0,0,0,0,0],"id":33,"left_children":[1,3,5,7,9,11,-1,-1,-1,13,15,-1,-1,-1,-1,-1,-1],"loss_changes":[2.9147196E0,3.1871355E0,8.0908275E-1,1.194176E0,8.6498165E-1,5.772507E-1,0E0,0E0,0E0,2.0611152E-1,9.4602156E-1,0E0,0E0,0E0,0E0,0E0,0E0],"parents":[2147483647,0,0,1,1,2,2,3,3,4,4,5,5,9,9,10,10],"right_children":[2,4,6,8,10,12,-1,-1,-1,14,16,-1,-1,-1,-1,-1,-1],"split_conditions":[2.2276726E-1,-3.816628E-1,-1.4790891E-1,6.608166E-1,-8.2271034E-1,-1.035111E-1,2.3094947E-3,-2.7034935E-2,7.925737E-3,-3.5781762E-1,-1.3890252E-1,-3.3900823E-2,-0E0,5.4237517E-3,-8.4931115E-3,3.8693596E-2,-3.187572E-4],"split_indices":[4,0,8,2,4,5,0,0,0,3,8,0,0,0,0,0,0],"split_type":[0,0,0,0,0,0,0,0,0,0,0,0,0,0,0,0,0],"sum_hessian":[3.0273682E1,2.0262457E1,1.0011226E1,5.50504E0,1.4757416E1,8.080012E0,1.9312136E0,3.9968462E0,1.5081942E0,2.9828901E0,1.1774526E1,6.5143447E0,1.5656674E0,1.5114175E0,1.4714727E0,9.619717E0,2.154809E0],"tree_param":{"num_deleted":"0","num_feature":"25","num_nodes":"17","size_leaf_vector":"1"}},{"base_weights":[6.449453E-2,-8.278E-2,3.3002415E-1,-2.3706706E-1,1.6935883E-1,-2.7025945E-4,2.847608E-2,-3.3507738E-1,7.369366E-3,2.9492307E-1,-7.64472E-2,-2.8875245E-2,-0E0,1.3788003E-2,-9.784544E-3,2.3515705E-2,-0E0,-1.0233397E-2,8.0247456E-4],"categories":[],"categories_nodes":[],"categories_segments":[],"categories_sizes":[],"default_left":[0,0,0,0,0,0,0,0,0,0,0,0,0,0,0,0,0,0,0],"id":34,"left_children":[1,3,5,7,9,-1,-1,11,13,15,17,-1,-1,-1,-1,-1,-1,-1,-1],"loss_changes":[1.9627739E0,1.7150662E0,4.571494E-1,7.798104E-1,8.530662E-1,0E0,0E0,4.4090366E-1,6.4596534E-1,1.2315512E-3,1.3361205E-1,0E0,0E0,0E0,0E0,0E0,0E0,0E0,0E0],"parents":[2147483647,0,0,1,1,2,2,3,3,4,4,7,7,8,8,9,9,10,10],"right_children":[2,4,6,8,10,-1,-1,12,14,16,18,-1,-1,-1,-1,-1,-1,-1,-1],"split_conditions":[7.4952495E-1,3.9208242E-1,-1.4363309E0,4.7050905E-1,2.2980642E-1,-2.7025945E-4,2.847608E-2,9.1047597E-1,6.64568E-1,-4.773461E-2,-6.6702336E-2,-2.8875245E-2,-0E0,1.3788003E-2,-9.784544E-3,2.3515705E-2,-0E0,-1.0233397E-2,8.0247456E-4],"split_indices":[2,6,0,0,2,0,0,11,0,11,1,0,0,0,0,0,0,0,0],"split_type":[0,0,0,0,0,0,0,0,0,0,0,0,0,0,0,0,0,0,0],"sum_hessian":[3.051671E1,2.3026232E1,7.490479E0,1.5702217E1,7.3240137E0,1.0205008E0,6.469978E0,9.8031225E0,5.8990946E0,4.6702156E0,2.6537983E0,8.068052E0,1.7350708E0,2.4805605E0,3.418534E0,3.059626E0,1.6105894E0,1.1360424E0,1.5177559E0],"tree_param":{"num_deleted":"0","num_feature":"25","num_nodes":"19","size_leaf_vector":"1"}},{"base_weights":[6.902071E-2,2.1488605E-1,-2.6596817E-1,3.2222766E-1,-1.569476E-1,-2.3924084E-2,-0E0,3.8203758E-1,-5.420586E-3,4.220461E-3,-1.9213254E-2,-0E0,3.346021E-2],"categories":[],"categories_nodes":[],"categories_segments":[],"categories_sizes":[],"default_left":[0,0,0,0,0,0,0,0,0,0,0,0,0],"id":35,"left_children":[1,3,5,7,9,-1,-1,11,-1,-1,-1,-1,-1],"loss_changes":[2.545134E0,1.967525E0,3.0904746E-1,1.1434169E0,5.148175E-1,0E0,0E0,7.273741E-1,0E0,0E0,0E0,0E0,0E0],"parents":[2147483647,0,0,1,1,2,2,3,3,4,4,7,7],"right_children":[2,4,6,8,10,-1,-1,12,-1,-1,-1,-1,-1],"split_conditions":[6.3639414E-1,1.0030949E0,8.904816E-1,1E0,1.6215914E-1,-2.3924084E-2,-0E0,-8.376865E-1,-5.420586E-3,4.220461E-3,-1.9213254E-2,-0E0,3.346021E-2],"split_indices":[4,3,10,17,11,0,0,4,0,0,0,0,0],"split_type":[0,0,0,0,0,0,0,0,0,0,0,0,0],"sum_hessian":[3.0834944E1,2.4863365E1,5.971578E0,2.121637E1,3.6469972E0,4.2141957E0,1.7573823E0,1.9628893E1,1.5874751E0,1.1506706E0,2.4963264E0,4.1158743E0,1.551302E1],"tree_param":{"num_deleted":"0","num_feature":"25","num_nodes":"13","size_leaf_vector":"1"}},{"base_weights":[4.899664E-2,2.0237835E-1,-2.2905193E-2,3.3896938E-1,-2.2162865E-1,-4.6729755E-2,4.3148002E-1,-1.9845558E-2,-0E0,-1.4554706E-2,9.705377E-3,3.5793785E-2,-2.879321E-4],"categories":[],"categories_nodes":[],"categories_segments":[],"categories_sizes":[],"default_left":[0,0,0,0,0,0,0,0,0,0,0,0,0],"id":36,"left_children":[1,3,-1,5,7,9,11,-1,-1,-1,-1,-1,-1],"loss_changes":[2.7594209E0,2.8260891E0,0E0,1.4769583E0,2.0814115E-1,6.4278525E-1,7.423849E-1,0E0,0E0,0E0,0E0,0E0,0E0],"parents":[2147483647,0,0,1,1,3,3,4,4,5,5,6,6],"right_children":[2,4,-1,6,8,10,12,-1,-1,-1,-1,-1,-1],"split_conditions":[1.0030949E0,6.3639414E-1,-2.2905193E-2,-8.2271034E-1,3.5116202E-1,6.3219637E-1,1E0,-1.9845558E-2,-0E0,-1.4554706E-2,9.705377E-3,3.5793785E-2,-2.879321E-4],"split_indices":[3,4,0,4,2,10,17,0,0,0,0,0,0],"split_type":[0,0,0,0,0,0,0,0,0,0,0,0,0],"sum_hessian":[3.0312407E1,2.4963583E1,5.3488235E0,2.1156643E1,3.80694E0,4.160853E0,1.6995789E1,2.7245216E0,1.0824184E0,3.0348458E0,1.126007E0,1.5456321E1,1.5394689E0],"tree_param":{"num_deleted":"0","num_feature":"25","num_nodes":"13","size_leaf_vector":"1"}},{"base_weights":[-8.040083E-2,1.4404193E-1,-2.6343155E-1,-1.2641647E-1,3.208872E-1,5.3330377E-2,-4.2210934E-1,8.489798E-3,-2.778255E-1,3.307694E-2,-4.2800404E-2,-1.4504437E-1,2.2996297E-1,-4.6962357E-1,-0E0,-2.691777E-2,1.7965259E-3,-1.2354736E-2,5.7690903E-3,-0E0,-1.290305E-2,2.0440297E-2,-0E0,-0E0,-3.8376294E-2],"categories":[],"categories_nodes":[],"categories_segments":[],"categories_sizes":[],"default_left":[0,0,0,0,0,0,0,0,0,0,0,0,0,0,0,0,0,0,0,0,0,0,0,0,0],"id":37,"left_children":[1,3,5,7,9,11,13,-1,15,-1,17,19,21,23,-1,-1,-1,-1,-1,-1,-1,-1,-1,-1,-1],"loss_changes":[2.0541418E0,1.5969385E0,1.7065126E0,9.413528E-1,1.1271023E0,9.5759016E-1,4.165063E-1,0E0,5.516969E-1,0E0,3.4655008E-1,7.481718E-2,2.1090281E-1,4.066465E-1,0E0,0E0,0E0,0E0,0E0,0E0,0E0,0E0,0E0,0E0,0E0],"parents":[2147483647,0,0,1,1,2,2,3,3,4,4,5,5,6,6,8,8,10,10,11,11,12,12,13,13],"right_children":[2,4,6,8,10,12,14,-1,16,-1,18,20,22,24,-1,-1,-1,-1,-1,-1,-1,-1,-1,-1,-1],"split_conditions":[-5.196217E-1,1.9207667E-1,-5.2297518E-2,-5.528601E-1,1.3071509E-1,-4.5868027E-1,1.0177801E0,8.489798E-3,6.608166E-1,3.307694E-2,4.050852E-1,-2.9675105E-1,8.794692E-2,-1.0121025E0,-0E0,-2.691777E-2,1.7965259E-3,-1.2354736E-2,5.7690903E-3,-0E0,-1.290305E-2,2.0440297E-2,-0E0,-0E0,-3.8376294E-2],"split_indices":[4,0,11,9,3,7,9,0,2,0,7,3,9,3,0,0,0,0,0,0,0,0,0,0,0],"split_type":[0,0,0,0,0,0,0,0,0,0,0,0,0,0,0,0,0,0,0,0,0,0,0,0,0],"sum_hessian":[2.95307E1,1.3177914E1,1.6352787E1,5.3866696E0,7.791244E0,6.7790623E0,9.573725E0,1.9844275E0,3.402242E0,5.1728916E0,2.6183527E0,2.9013371E0,3.8777251E0,7.7018585E0,1.8718659E0,2.3285735E0,1.0736686E0,1.2048757E0,1.413477E0,1.1426582E0,1.7586789E0,2.786108E0,1.0916173E0,1.1518519E0,6.550007E0],"tree_param":{"num_deleted":"0","num_feature":"25","num_nodes":"25","size_leaf_vector":"1"}},{"base_weights":[-3.9901864E-3,-1.7494485E-1,2.6231024E-1,-2.7340662E-1,1.15734875E-1,-0E0,2.996329E-1,-4.0311396E-1,5.8165163E-2,1.7435713E-2,-5.9668277E-3,3.310177E-1,-0E0,-3.263367E-2,-0E0,1.5565078E-2,-9.123401E-3,-0E0,2.692064E-2],"categories":[],"categories_nodes":[],"categories_segments":[],"categories_sizes":[],"default_left":[0,0,0,0,0,0,0,0,0,0,0,0,0,0,0,0,0,0,0],"id":38,"left_children":[1,3,5,7,9,-1,11,13,15,-1,-1,17,-1,-1,-1,-1,-1,-1,-1],"loss_changes":[2.253349E0,1.2843024E0,2.8020167E-1,1.5672033E0,5.637226E-1,0E0,2.0931768E-1,3.361175E-1,7.035742E-1,0E0,0E0,1.6292298E-1,0E0,0E0,0E0,0E0,0E0,0E0,0E0],"parents":[2147483647,0,0,1,1,2,2,3,3,4,4,6,6,7,7,8,8,11,11],"right_children":[2,4,6,8,10,-1,12,14,16,-1,-1,18,-1,-1,-1,-1,-1,-1,-1],"split_conditions":[5.3499734E-1,6.608166E-1,-5.01885E-1,3.9208242E-1,9.371644E-1,-0E0,1.2931134E0,2.5068219E0,-1.3373724E-1,1.7435713E-2,-5.9668277E-3,-8.2271034E-1,-0E0,-3.263367E-2,-0E0,1.5565078E-2,-9.123401E-3,-0E0,2.692064E-2],"split_indices":[9,2,8,6,2,0,10,8,10,0,0,4,0,0,0,0,0,0,0],"split_type":[0,0,0,0,0,0,0,0,0,0,0,0,0,0,0,0,0,0,0],"sum_hessian":[3.0232666E1,2.14744E1,8.758266E0,1.7577581E1,3.8968184E0,1.261078E0,7.4971886E0,1.2005899E1,5.5716815E0,2.6270368E0,1.2697816E0,6.2468624E0,1.250326E0,1.0770711E1,1.2351887E0,3.503634E0,2.0680473E0,1.0866189E0,5.1602435E0],"tree_param":{"num_deleted":"0","num_feature":"25","num_nodes":"19","size_leaf_vector":"1"}},{"base_weights":[-5.8364175E-2,1.0129366E-1,-2.3192301E-1,2.0214811E-1,-1.0847285E-2,-3.0228025E-1,5.126322E-3,3.2169226E-1,-0E0,-3.4282854E-1,-0E0,-0E0,2.8056206E-2,-1.6293103E-2,1.3611949E-2,-2.6861336E-2,-0E0],"categories":[],"categories_nodes":[],"categories_segments":[],"categories_sizes":[],"default_left":[0,0,0,0,0,0,0,0,0,0,0,0,0,0,0,0,0],"id":39,"left_children":[1,3,5,7,-1,9,-1,11,13,15,-1,-1,-1,-1,-1,-1,-1],"loss_changes":[1.3762525E0,9.6241766E-1,7.931675E-1,5.955624E-1,0E0,3.765819E-1,0E0,3.9610457E-1,1.1277652E0,5.9025526E-2,0E0,0E0,0E0,0E0,0E0,0E0,0E0],"parents":[2147483647,0,0,1,1,2,2,3,3,5,5,7,7,8,8,9,9],"right_children":[2,4,6,8,-1,10,-1,12,14,16,-1,-1,-1,-1,-1,-1,-1],"split_conditions":[6.96485E-2,8.859966E-1,1.0520803E0,-3.7906083E-1,-1.0847285E-2,9.5693535E-1,5.126322E-3,-8.3657765E-1,3.3551154E-1,1E0,-0E0,-0E0,2.8056206E-2,-1.6293103E-2,1.3611949E-2,-2.6861336E-2,-0E0],"split_indices":[3,4,6,8,0,7,0,7,0,22,0,0,0,0,0,0,0],"split_type":[0,0,0,0,0,0,0,0,0,0,0,0,0,0,0,0,0],"sum_hessian":[2.918356E1,1.6092993E1,1.3090567E1,1.388814E1,2.2048535E0,1.1693403E1,1.3971632E0,5.187808E0,8.700332E0,1.0069363E1,1.6240405E0,1.05257E0,4.1352377E0,3.2065592E0,5.4937725E0,8.94698E0,1.122383E0],"tree_param":{"num_deleted":"0","num_feature":"25","num_nodes":"17","size_leaf_vector":"1"}},{"base_weights":[6.130242E-2,-8.4316395E-2,3.209018E-1,-1.9716328E-1,1.20802194E-1,3.0180402E-2,-2.4354304E-3,-2.7886763E-1,3.5934057E-2,2.8009206E-1,-1.2409387E-1,5.2817147E-3,-2.6522005E-2,-6.0391007E-3,1.1429669E-2,-0E0,2.1927595E-2,-1.1128154E-2,-0E0],"categories":[],"categories_nodes":[],"categories_segments":[],"categories_sizes":[],"default_left":[0,0,0,0,0,0,0,0,0,0,0,0,0,0,0,0,0,0,0],"id":40,"left_children":[1,3,5,7,9,-1,-1,11,13,15,17,-1,-1,-1,-1,-1,-1,-1,-1],"loss_changes":[1.8910785E0,1.0258789E0,7.866051E-1,7.022059E-1,1.0553465E0,0E0,0E0,9.3194914E-1,3.4555373E-1,3.6025047E-4,5.6792706E-2,0E0,0E0,0E0,0E0,0E0,0E0,0E0,0E0],"parents":[2147483647,0,0,1,1,2,2,3,3,4,4,7,7,8,8,9,9,10,10],"right_children":[2,4,6,8,10,-1,-1,12,14,16,18,-1,-1,-1,-1,-1,-1,-1,-1],"split_conditions":[7.4952495E-1,5.768818E-1,1.4091482E0,6.367015E-1,2.2980642E-1,3.0180402E-2,-2.4354304E-3,-2.3114061E0,8.3696795E-1,-7.749293E-1,4.5965654E-1,5.2817147E-3,-2.6522005E-2,-6.0391007E-3,1.1429669E-2,-0E0,2.1927595E-2,-1.1128154E-2,-0E0],"split_indices":[2,6,1,11,2,0,0,2,7,4,2,0,0,0,0,0,0,0,0],"split_type":[0,0,0,0,0,0,0,0,0,0,0,0,0,0,0,0,0,0,0],"sum_hessian":[3.020614E1,2.262747E1,7.5786715E0,1.6184559E1,6.4429116E0,6.044922E0,1.5337499E0,1.1880931E1,4.3036275E0,4.085117E0,2.3577952E0,1.1540345E0,1.0726896E1,1.8586388E0,2.4449885E0,1.0865502E0,2.9985664E0,1.2820925E0,1.0757028E0],"tree_param":{"num_deleted":"0","num_feature":"25","num_nodes":"19","size_leaf_vector":"1"}},{"base_weights":[3.3768997E-2,2.3363727E-1,-1.5411751E-1,-8.230688E-2,3.7374455E-1,-2.6336744E-1,1.2048022E-1,1.3793602E-2,-2.1901032E-2,-0E0,3.3584405E-2,1.37915425E-2,-3.2759848E-1,1.873358E-2,-5.9560617E-3,1.2399278E-2,-1.1924176E-2,-4.49591E-3,8.463089E-3,-2.8218955E-2,-0E0],"categories":[],"categories_nodes":[],"categories_segments":[],"categories_sizes":[],"default_left":[0,0,0,0,0,0,0,0,0,0,0,0,0,0,0,0,0,0,0,0,0],"id":41,"left_children":[1,3,5,7,9,11,13,-1,-1,15,-1,17,19,-1,-1,-1,-1,-1,-1,-1,-1],"loss_changes":[1.880154E0,1.5049607E0,1.1379418E0,1.397081E0,4.7346115E-1,5.768082E-1,6.026166E-1,0E0,0E0,6.148757E-1,0E0,1.8098971E-1,3.1449628E-1,0E0,0E0,0E0,0E0,0E0,0E0,0E0,0E0],"parents":[2147483647,0,0,1,1,2,2,3,3,4,4,5,5,6,6,9,9,11,11,12,12],"right_children":[2,4,6,8,10,12,14,-1,-1,16,-1,18,20,-1,-1,-1,-1,-1,-1,-1,-1],"split_conditions":[-5.196217E-1,-8.2271034E-1,-1.17839776E-1,-9.182724E-1,1.4988995E-1,-6.723963E-1,2.508329E0,1.3793602E-2,-2.1901032E-2,-1.6168271E-1,3.3584405E-2,7.589891E-1,8.62966E-1,1.873358E-2,-5.9560617E-3,1.2399278E-2,-1.1924176E-2,-4.49591E-3,8.463089E-3,-2.8218955E-2,-0E0],"split_indices":[4,4,8,4,0,8,8,0,0,9,0,7,2,0,0,0,0,0,0,0,0],"split_type":[0,0,0,0,0,0,0,0,0,0,0,0,0,0,0,0,0,0,0,0,0],"sum_hessian":[2.9578173E1,1.42489395E1,1.5329233E1,4.712454E0,9.536486E0,1.2366724E1,2.9625087E0,1.7159029E0,2.9965513E0,3.4827516E0,6.0537343E0,2.5585384E0,9.808186E0,1.5909749E0,1.3715338E0,1.9186482E0,1.5641034E0,1.2596352E0,1.2989031E0,7.327652E0,2.4805336E0],"tree_param":{"num_deleted":"0","num_feature":"25","num_nodes":"21","size_leaf_vector":"1"}},{"base_weights":[-2.0152774E-2,1.9863498E-1,-2.1288034E-1,-6.275998E-2,3.3303535E-1,-2.9257256E-1,3.572418E-2,8.417275E-3,-1.6097968E-2,2.8561512E-2,-0E0,1.3146331E-3,-3.392674E-1,1.7387505E-1,-9.1027655E-3,-0E0,-2.8993301E-2,1.842534E-2,-9.355137E-4],"categories":[],"categories_nodes":[],"categories_segments":[],"categories_sizes":[],"default_left":[0,0,0,0,0,0,0,0,0,0,0,0,0,0,0,0,0,0,0],"id":42,"left_children":[1,3,5,7,9,11,13,-1,-1,-1,-1,-1,15,17,-1,-1,-1,-1,-1],"loss_changes":[2.0625453E0,1.1068298E0,7.3793507E-1,6.77167E-1,3.506106E-1,5.207428E-1,5.370251E-1,0E0,0E0,0E0,0E0,0E0,4.3755913E-1,3.0188146E-1,0E0,0E0,0E0,0E0,0E0],"parents":[2147483647,0,0,1,1,2,2,3,3,4,4,5,5,6,6,12,12,13,13],"right_children":[2,4,6,8,10,12,14,-1,-1,-1,-1,-1,16,18,-1,-1,-1,-1,-1],"split_conditions":[-5.9592867E-1,-8.0844736E-1,-1.17839776E-1,-8.9944524E-1,1E0,-7.319246E-1,-1.044751E-1,8.417275E-3,-1.6097968E-2,2.8561512E-2,-0E0,1.3146331E-3,-1.161084E0,1.7584786E-1,-9.1027655E-3,-0E0,-2.8993301E-2,1.842534E-2,-9.355137E-4],"split_indices":[4,4,8,4,21,8,5,0,0,0,0,0,11,11,0,0,0,0,0],"split_type":[0,0,0,0,0,0,0,0,0,0,0,0,0,0,0,0,0,0,0],"sum_hessian":[2.8742489E1,1.2284192E1,1.6458298E1,4.906932E0,7.3772597E0,1.241922E1,4.0390773E0,2.181177E0,2.7257552E0,5.7891507E0,1.5881088E0,1.2523277E0,1.1166892E1,3.0093875E0,1.0296896E0,1.8359544E0,9.330938E0,1.5487655E0,1.4606221E0],"tree_param":{"num_deleted":"0","num_feature":"25","num_nodes":"19","size_leaf_vector":"1"}},{"base_weights":[-4.558317E-2,2.2246888E-1,-2.827112E-1,2.7574107E-1,-2.9273701E-3,-3.1690854E-1,2.6136532E-4,3.1658202E-1,-0E0,-3.4592012E-1,-0E0,-0E0,2.6729586E-2,-2.8728675E-2,-0E0],"categories":[],"categories_nodes":[],"categories_segments":[],"categories_sizes":[],"default_left":[0,0,0,0,0,0,0,0,0,0,0,0,0,0,0],"id":43,"left_children":[1,3,5,7,-1,9,-1,11,-1,13,-1,-1,-1,-1,-1],"loss_changes":[3.0846736E0,5.24161E-1,3.9417958E-1,3.0519092E-1,0E0,2.5147033E-1,0E0,1.5387928E-1,0E0,2.2813416E-1,0E0,0E0,0E0,0E0,0E0],"parents":[2147483647,0,0,1,1,2,2,3,3,5,5,7,7,9,9],"right_children":[2,4,6,8,-1,10,-1,12,-1,14,-1,-1,-1,-1,-1],"split_conditions":[-1.6589406E-1,8.859966E-1,1.0322803E0,1E0,-2.9273701E-3,9.449386E-1,2.6136532E-4,-7.406981E-1,-0E0,8.62966E-1,-0E0,-0E0,2.6729586E-2,-2.8728675E-2,-0E0],"split_indices":[3,4,6,21,0,7,0,4,0,2,0,0,0,0,0],"split_type":[0,0,0,0,0,0,0,0,0,0,0,0,0,0,0],"sum_hessian":[2.823173E1,1.27001505E1,1.5531578E1,1.144577E1,1.2543805E0,1.424222E1,1.2893581E0,9.314499E0,2.131271E0,1.2447977E1,1.7942432E0,2.7771902E0,6.5373087E0,9.965176E0,2.4828017E0],"tree_param":{"num_deleted":"0","num_feature":"25","num_nodes":"15","size_leaf_vector":"1"}},{"base_weights":[3.9431058E-2,1.6786177E-1,-1.9501103E-2,2.468926E-1,-1.1263695E-1,-9.499937E-2,3.5046798E-1,4.1879574E-3,-1.5812222E-2,-1.8721852E-2,8.931745E-3,2.924601E-2,-2.0942921E-4],"categories":[],"categories_nodes":[],"categories_segments":[],"categories_sizes":[],"default_left":[0,0,0,0,0,0,0,0,0,0,0,0,0],"id":44,"left_children":[1,3,-1,5,7,9,11,-1,-1,-1,-1,-1,-1],"loss_changes":[1.8809447E0,1.0916302E0,0E0,1.5371487E0,3.9958358E-1,8.154531E-1,5.396793E-1,0E0,0E0,0E0,0E0,0E0,0E0],"parents":[2147483647,0,0,1,1,3,3,4,4,5,5,6,6],"right_children":[2,4,-1,6,8,10,12,-1,-1,-1,-1,-1,-1],"split_conditions":[8.859966E-1,1.0030949E0,-1.9501103E-2,-8.2271034E-1,7.8116596E-2,6.3219637E-1,1E0,4.1879574E-3,-1.5812222E-2,-1.8721852E-2,8.931745E-3,2.924601E-2,-2.0942921E-4],"split_indices":[4,3,0,4,10,10,17,0,0,0,0,0,0],"split_type":[0,0,0,0,0,0,0,0,0,0,0,0,0],"sum_hessian":[2.8687792E1,2.4123173E1,4.56462E0,2.0938038E1,3.1851351E0,4.106165E0,1.6831873E1,1.1477463E0,2.0373888E0,2.5862174E0,1.5199478E0,1.5353549E1,1.478323E0],"tree_param":{"num_deleted":"0","num_feature":"25","num_nodes":"13","size_leaf_vector":"1"}},{"base_weights":[-0E0,2.935759E-1,-2.3797034E-1,-0E0,3.492909E-1,-0E0,-3.1168467E-1,3.5887817E-3,-5.333742E-3,-0E0,2.9448282E-2,-1.4511955E-1,1.4504946E-2,-3.735122E-1,1.9348525E-3,-1.1949192E-2,-0E0,-3.4016334E-2,3.52818E-3],"categories":[],"categories_nodes":[],"categories_segments":[],"categories_sizes":[],"default_left":[0,0,0,0,0,0,0,0,0,0,0,0,0,0,0,0,0,0,0],"id":45,"left_children":[1,3,5,7,9,11,13,-1,-1,-1,-1,15,-1,17,-1,-1,-1,-1,-1],"loss_changes":[3.3043327E0,4.3033326E-1,5.8226943E-1,8.240816E-2,3.0317998E-1,7.186314E-1,6.901624E-1,0E0,0E0,0E0,0E0,2.6798993E-2,0E0,1.0406752E0,0E0,0E0,0E0,0E0,0E0],"parents":[2147483647,0,0,1,1,2,2,3,3,4,4,5,5,6,6,11,11,13,13],"right_children":[2,4,6,8,10,12,14,-1,-1,-1,-1,16,-1,18,-1,-1,-1,-1,-1],"split_conditions":[-5.9592867E-1,-7.950927E-1,-6.7484176E-1,-3.3112246E-1,-4.886578E-1,6.0550654E-1,1E0,3.5887817E-3,-5.333742E-3,-0E0,2.9448282E-2,-6.275972E-1,1.4504946E-2,9.3294185E-1,1.9348525E-3,-1.1949192E-2,-0E0,-3.4016334E-2,3.52818E-3],"split_indices":[4,0,1,8,9,0,22,0,0,0,0,2,0,7,0,0,0,0,0],"split_type":[0,0,0,0,0,0,0,0,0,0,0,0,0,0,0,0,0,0,0],"sum_hessian":[2.7394846E1,1.098892E1,1.6405926E1,2.6346128E0,8.354307E0,5.019505E0,1.138642E1,1.4308869E0,1.203726E0,1.7770903E0,6.577217E0,3.1479208E0,1.8715844E0,9.784154E0,1.6022657E0,2.0261664E0,1.1217543E0,8.450668E0,1.3334856E0],"tree_param":{"num_deleted":"0","num_feature":"25","num_nodes":"19","size_leaf_vector":"1"}},{"base_weights":[4.262733E-4,1.9270984E-2,-9.3068816E-2,-1.7387836E-1,1.0575304E-1,-2.8965908E-1,2.426041E-2,2.5090408E-1,-9.016677E-3,5.812247E-4,-2.726659E-2,8.723836E-3,-7.899501E-3,2.0421486E-2,-0E0],"categories":[],"categories_nodes":[],"categories_segments":[],"categories_sizes":[],"default_left":[0,0,0,0,0,0,0,0,0,0,0,0,0,0,0],"id":46,"left_children":[1,-1,3,5,7,9,11,13,-1,-1,-1,-1,-1,-1,-1],"loss_changes":[1.2189156E0,0E0,7.592753E-1,8.595185E-1,8.323611E-1,6.288563E-1,3.489816E-1,4.8647642E-2,0E0,0E0,0E0,0E0,0E0,0E0,0E0],"parents":[2147483647,0,0,2,2,3,3,4,4,5,5,6,6,7,7],"right_children":[2,-1,4,6,8,10,12,14,-1,-1,-1,-1,-1,-1,-1],"split_conditions":[-1.1691309E0,1.9270984E-2,-7.772369E-2,4.958211E-1,2.626381E0,-5.49321E-1,-1.7464101E-1,4.6829233E-1,-9.016677E-3,5.812247E-4,-2.726659E-2,8.723836E-3,-7.899501E-3,2.0421486E-2,-0E0],"split_indices":[3,0,8,0,8,8,8,10,0,0,0,0,0,0,0],"split_type":[0,0,0,0,0,0,0,0,0,0,0,0,0,0,0],"sum_hessian":[2.8082943E1,4.073328E0,2.4009615E1,1.9483986E1,4.525629E0,1.0737124E1,8.746861E0,3.2203002E0,1.3053288E0,2.7280264E0,8.009098E0,7.641607E0,1.1052551E0,1.9433813E0,1.276919E0],"tree_param":{"num_deleted":"0","num_feature":"25","num_nodes":"15","size_leaf_vector":"1"}},{"base_weights":[1.0802056E-2,-1.2196568E-1,1.5137102E-1,-2.571967E-1,1.4976448E-1,-7.022803E-2,2.833391E-1,6.042421E-2,-3.7636855E-1,1.391403E-2,-0E0,7.427283E-3,-1.9538037E-1,3.3480236E-1,-3.5992722E-4,-2.93701E-3,1.0180919E-2,-3.343177E-2,9.806837E-4,8.40227E-4,-1.9469619E-2,-0E0,2.7761146E-2],"categories":[],"categories_nodes":[],"categories_segments":[],"categories_sizes":[],"default_left":[0,0,0,0,0,0,0,0,0,0,0,0,0,0,0,0,0,0,0,0,0,0,0],"id":47,"left_children":[1,3,5,7,9,11,13,15,17,-1,-1,-1,19,21,-1,-1,-1,-1,-1,-1,-1,-1,-1],"loss_changes":[9.219634E-1,1.3111496E0,1.0172837E0,1.1460668E0,1.1704612E-1,5.745655E-1,4.3490183E-1,1.9301748E-1,7.044885E-1,0E0,0E0,0E0,3.1873226E-1,2.6153314E-1,0E0,0E0,0E0,0E0,0E0,0E0,0E0,0E0,0E0],"parents":[2147483647,0,0,1,1,2,2,3,3,4,4,5,5,6,6,7,7,8,8,12,12,13,13],"right_children":[2,4,6,8,10,12,14,16,18,-1,-1,-1,20,22,-1,-1,-1,-1,-1,-1,-1,-1,-1],"split_conditions":[8.239895E-2,5.768818E-1,-6.1043683E-2,-8.9899844E-1,-1.3373724E-1,-1.3899276E-1,8.2108104E-1,-1.9822677E-3,-1.217868E-1,1.391403E-2,-0E0,7.427283E-3,9.1967016E-1,-8.797333E-1,-3.5992722E-4,-2.93701E-3,1.0180919E-2,-3.343177E-2,9.806837E-4,8.40227E-4,-1.9469619E-2,-0E0,2.7761146E-2],"split_indices":[2,6,0,2,10,11,6,0,8,0,0,0,1,6,0,0,0,0,0,0,0,0,0],"split_type":[0,0,0,0,0,0,0,0,0,0,0,0,0,0,0,0,0,0,0,0,0,0,0],"sum_hessian":[2.8838175E1,1.3955398E1,1.4882777E1,1.0720186E1,3.235211E0,6.0983877E0,8.78439E0,3.2962034E0,7.423983E0,2.0883632E0,1.1468477E0,2.045684E0,4.0527034E0,7.3309355E0,1.4534544E0,1.0373338E0,2.2588694E0,6.040301E0,1.383682E0,1.3178308E0,2.7348726E0,1.1594228E0,6.171513E0],"tree_param":{"num_deleted":"0","num_feature":"25","num_nodes":"23","size_leaf_vector":"1"}},{"base_weights":[2.5724184E-2,-1.2759194E-1,1.7531049E-1,-2.5404263E-1,1.2652156E-1,3.3140782E-1,-1.4967488E-1,6.746536E-2,-3.0972084E-2,1.4203464E-2,-1.0424723E-3,3.9310881E-1,-2.8515272E-3,-0E0,-1.5924001E-2,-1.0418043E-2,1.7308593E-2,-0E0,3.341557E-2,-2.085307E-3,4.9515506E-3],"categories":[],"categories_nodes":[],"categories_segments":[],"categories_sizes":[],"default_left":[0,0,0,0,0,0,0,0,0,0,0,0,0,0,0,0,0,0,0,0,0],"id":48,"left_children":[1,3,5,7,9,11,13,15,-1,-1,-1,17,-1,19,-1,-1,-1,-1,-1,-1,-1],"loss_changes":[1.1088241E0,1.1149201E0,1.8265173E0,1.4294219E0,2.1621308E-1,7.7145123E-1,2.2008881E-1,8.3479875E-1,0E0,0E0,0E0,5.7918954E-1,0E0,5.6534823E-2,0E0,0E0,0E0,0E0,0E0,0E0,0E0],"parents":[2147483647,0,0,1,1,2,2,3,3,4,4,5,5,6,6,7,7,11,11,13,13],"right_children":[2,4,6,8,10,12,14,16,-1,-1,-1,18,-1,20,-1,-1,-1,-1,-1,-1,-1],"split_conditions":[2.00514E-1,6.608166E-1,2.2276726E-1,-8.464189E-1,1.1050786E0,1E0,-3.645645E-1,-1.3793012E0,-3.0972084E-2,1.4203464E-2,-1.0424723E-3,-8.734153E-1,-2.8515272E-3,-8.797333E-1,-1.5924001E-2,-1.0418043E-2,1.7308593E-2,-0E0,3.341557E-2,-2.085307E-3,4.9515506E-3],"split_indices":[0,2,4,9,1,22,8,9,0,0,0,4,0,6,0,0,0,0,0,0,0],"split_type":[0,0,0,0,0,0,0,0,0,0,0,0,0,0,0,0,0,0,0,0,0],"sum_hessian":[2.7710361E1,1.3006736E1,1.4703626E1,9.804281E0,3.2024543E0,1.0683198E1,4.0204277E0,4.2268667E0,5.5774145E0,1.9225322E0,1.2799222E0,9.588863E0,1.0943342E0,2.1091332E0,1.9112945E0,1.3674855E0,2.8593814E0,1.3270732E0,8.26179E0,1.0269991E0,1.0821342E0],"tree_param":{"num_deleted":"0","num_feature":"25","num_nodes":"21","size_leaf_vector":"1"}},{"base_weights":[-9.345196E-3,-1.5284204E-1,2.3338112E-1,8.541202E-2,-2.373734E-1,2.9096538E-1,-1.7135107E-3,1.6997299E-1,-3.440047E-3,-3.3763382E-1,7.185152E-2,-0E0,2.3318063E-2,-0E0,1.5156784E-2,-3.463937E-2,-0E0,1.6107807E-2,-8.160011E-3],"categories":[],"categories_nodes":[],"categories_segments":[],"categories_sizes":[],"default_left":[0,0,0,0,0,0,0,0,0,0,0,0,0,0,0,0,0,0,0],"id":49,"left_children":[1,3,5,7,9,11,-1,13,-1,15,17,-1,-1,-1,-1,-1,-1,-1,-1],"loss_changes":[1.6797385E0,9.044719E-1,4.3605667E-1,2.894203E-1,1.2024107E0,4.0040255E-2,0E0,1.0735196E-1,0E0,1.1488478E0,6.3418937E-1,0E0,0E0,0E0,0E0,0E0,0E0,0E0,0E0],"parents":[2147483647,0,0,1,1,2,2,3,3,4,4,5,5,7,7,9,9,10,10],"right_children":[2,4,6,8,10,12,-1,14,-1,16,18,-1,-1,-1,-1,-1,-1,-1,-1],"split_conditions":[7.4952495E-1,-8.9899844E-1,5.843526E-1,-2.2896637E-1,7.880811E-1,-5.1869664E-2,-1.7135107E-3,-7.167139E-1,-3.440047E-3,2.409009E-1,2.2980642E-1,-0E0,2.3318063E-2,-0E0,1.5156784E-2,-3.463937E-2,-0E0,1.6107807E-2,-8.160011E-3],"split_indices":[2,2,3,8,6,1,0,6,0,9,2,0,0,0,0,0,0,0,0],"split_type":[0,0,0,0,0,0,0,0,0,0,0,0,0,0,0,0,0,0,0],"sum_hessian":[2.8968315E1,2.163381E1,7.3345065E0,4.3207207E0,1.731309E1,6.2347393E0,1.0997669E0,2.7991967E0,1.521524E0,1.3418825E1,3.8942637E0,1.5255809E0,4.709159E0,1.0556961E0,1.7435005E0,7.994024E0,5.4248013E0,2.4454353E0,1.4488285E0],"tree_param":{"num_deleted":"0","num_feature":"25","num_nodes":"19","size_leaf_vector":"1"}},{"base_weights":[-8.5702255E-2,-2.1649492E-1,1.4787996E-1,-3.612363E-1,1.3001408E-1,2.7331267E-2,-1.6848717E-2,-5.0088155E-1,9.073735E-2,1.7694479E-2,-5.739189E-2,-4.1659214E-2,2.167883E-5,1.4125216E-2,-3.6975539E-3,-5.574161E-3,-0E0],"categories":[],"categories_nodes":[],"categories_segments":[],"categories_sizes":[],"default_left":[0,0,0,0,0,0,0,0,0,0,0,0,0,0,0,0,0],"id":50,"left_children":[1,3,5,7,9,-1,-1,11,13,-1,15,-1,-1,-1,-1,-1,-1],"loss_changes":[1.5025445E0,2.0436976E0,2.343097E0,2.160505E0,5.098274E-1,0E0,0E0,7.907572E-1,3.3443213E-1,0E0,2.0823464E-2,0E0,0E0,0E0,0E0,0E0,0E0],"parents":[2147483647,0,0,1,1,2,2,3,3,4,4,7,7,8,8,10,10],"right_children":[2,4,6,8,10,-1,-1,12,14,-1,16,-1,-1,-1,-1,-1,-1],"split_conditions":[6.367015E-1,5.768818E-1,5.843526E-1,7.8876764E-1,8.794692E-2,2.7331267E-2,-1.6848717E-2,5.3499734E-1,5.7212263E-2,1.7694479E-2,-4.3561798E-2,-4.1659214E-2,2.167883E-5,1.4125216E-2,-3.6975539E-3,-5.574161E-3,-0E0],"split_indices":[11,6,3,2,9,0,0,9,11,0,10,0,0,0,0,0,0],"split_type":[0,0,0,0,0,0,0,0,0,0,0,0,0,0,0,0,0],"sum_hessian":[2.7747324E1,1.942345E1,8.323874E0,1.4266431E1,5.1570187E0,6.1375318E0,2.1863422E0,1.0791128E1,3.4753032E0,3.1178613E0,2.0391574E0,9.570453E0,1.2206752E0,1.8230875E0,1.6522156E0,1.00563E0,1.0335274E0],"tree_param":{"num_deleted":"0","num_feature":"25","num_nodes":"17","size_leaf_vector":"1"}},{"base_weights":[-4.1735485E-2,1.5381566E-1,-2.0645839E-1,-2.5078285E-2,2.8573322E-1,4.317616E-2,-3.2303196E-1,1.4327085E-1,-1.916082E-1,2.5016494E-2,-0E0,-1.3176296E-2,2.5367266E-1,-3.8239446E-1,2.36004E-3,-0E0,1.2973749E-2,-2.1100296E-2,2.9501698E-3,-0E0,2.1940593E-2,-3.226682E-2,-0E0],"categories":[],"categories_nodes":[],"categories_segments":[],"categories_sizes":[],"default_left":[0,0,0,0,0,0,0,0,0,0,0,0,0,0,0,0,0,0,0,0,0,0,0],"id":51,"left_children":[1,3,5,7,9,11,13,15,17,-1,-1,-1,19,21,-1,-1,-1,-1,-1,-1,-1,-1,-1],"loss_changes":[1.6163752E0,7.1744776E-1,1.0429889E0,7.841705E-1,3.278705E-1,1.2245344E0,7.0515466E-1,9.081265E-2,5.0691646E-1,0E0,0E0,0E0,1.69752E-1,5.180602E-1,0E0,0E0,0E0,0E0,0E0,0E0,0E0,0E0,0E0],"parents":[2147483647,0,0,1,1,2,2,3,3,4,4,5,5,6,6,7,7,8,8,12,12,13,13],"right_children":[2,4,6,8,10,12,14,16,18,-1,-1,-1,20,22,-1,-1,-1,-1,-1,-1,-1,-1,-1],"split_conditions":[-1.6589406E-1,3.2675898E-1,-1.3373724E-1,-7.6210326E-1,1.1050786E0,-4.5868027E-1,-1.0263043E-1,-1.4784034E0,7.0500374E-1,2.5016494E-2,-0E0,-1.3176296E-2,6.018002E-1,1E0,2.36004E-3,-0E0,1.2973749E-2,-2.1100296E-2,2.9501698E-3,-0E0,2.1940593E-2,-3.226682E-2,-0E0],"split_indices":[3,2,10,10,1,7,5,7,7,0,0,0,3,22,0,0,0,0,0,0,0,0,0],"split_type":[0,0,0,0,0,0,0,0,0,0,0,0,0,0,0,0,0,0,0,0,0,0,0],"sum_hessian":[2.9625996E1,1.2667829E1,1.6958168E1,7.4457965E0,5.2220325E0,6.24122E0,1.0716948E1,3.1273253E0,4.318471E0,4.1905885E0,1.0314437E0,2.8938217E0,3.3473985E0,9.531078E0,1.1858692E0,1.0249028E0,2.1024225E0,2.8904088E0,1.4280623E0,1.2651807E0,2.082218E0,8.323431E0,1.2076474E0],"tree_param":{"num_deleted":"0","num_feature":"25","num_nodes":"23","size_leaf_vector":"1"}},{"base_weights":[-6.2067874E-2,1.8196256E-1,-2.319221E-1,-2.1369427E-3,2.1120524E-2,2.9509315E-2,-3.0193374E-1,9.731483E-3,-1.5945733E-1,-6.6596954E-3,1.1745844E-2,-3.690279E-1,5.171933E-3,-0E0,-1.4769352E-2,-2.9939875E-2,-0E0],"categories":[],"categories_nodes":[],"categories_segments":[],"categories_sizes":[],"default_left":[0,0,0,0,0,0,0,0,0,0,0,0,0,0,0,0,0],"id":52,"left_children":[1,3,5,7,-1,9,11,-1,13,-1,-1,15,-1,-1,-1,-1,-1],"loss_changes":[1.9913719E0,4.869954E-1,7.0729125E-1,5.3741384E-1,0E0,3.7092146E-1,9.7401047E-1,0E0,1.1737713E-1,0E0,0E0,3.4672904E-1,0E0,0E0,0E0,0E0,0E0],"parents":[2147483647,0,0,1,1,2,2,3,3,5,5,6,6,8,8,11,11],"right_children":[2,4,6,8,-1,10,12,-1,14,-1,-1,16,-1,-1,-1,-1,-1],"split_conditions":[-2.9675105E-1,3.2675898E-1,-9.088015E-1,-7.6210326E-1,2.1120524E-2,-1.1943454E0,1.1308881E0,9.731483E-3,-3.7906083E-1,-6.6596954E-3,1.1745844E-2,-9.223279E-2,5.171933E-3,-0E0,-1.4769352E-2,-2.9939875E-2,-0E0],"split_indices":[3,2,9,10,0,9,7,0,8,0,0,5,0,0,0,0,0],"split_type":[0,0,0,0,0,0,0,0,0,0,0,0,0,0,0,0,0],"sum_hessian":[2.7349323E1,9.903851E0,1.744547E1,5.378396E0,4.525455E0,3.6239884E0,1.3821483E1,2.422851E0,2.955545E0,1.6962258E0,1.9277627E0,1.2713203E1,1.1082798E0,1.3742429E0,1.581302E0,1.16976795E1,1.015524E0],"tree_param":{"num_deleted":"0","num_feature":"25","num_nodes":"17","size_leaf_vector":"1"}},{"base_weights":[-7.917394E-2,-1.7531767E-1,1.5565831E-2,-2.761905E-1,9.097041E-2,-3.5080045E-1,6.0341886E-4,1.633031E-2,-7.990871E-2,-2.902047E-2,-0E0,8.815909E-3,-7.3381774E-3,-0E0,-8.812946E-3],"categories":[],"categories_nodes":[],"categories_segments":[],"categories_sizes":[],"default_left":[0,0,0,0,0,0,0,0,0,0,0,0,0,0,0],"id":53,"left_children":[1,3,-1,5,7,9,11,-1,13,-1,-1,-1,-1,-1,-1],"loss_changes":[1.3374786E0,1.2273473E0,0E0,7.264805E-1,5.6708574E-1,4.391377E-1,2.9100144E-1,0E0,7.4435435E-2,0E0,0E0,0E0,0E0,0E0,0E0],"parents":[2147483647,0,0,1,1,3,3,4,4,5,5,6,6,8,8],"right_children":[2,4,-1,6,8,10,12,-1,14,-1,-1,-1,-1,-1,-1],"split_conditions":[1E0,7.4952495E-1,1.5565831E-2,6.719711E-1,4.6829233E-1,1.017995E-1,3.47533E-2,1.633031E-2,2.2667687E-1,-2.902047E-2,-0E0,8.815909E-3,-7.3381774E-3,-0E0,-8.812946E-3],"split_indices":[18,2,0,9,10,5,3,0,3,0,0,0,0,0,0],"split_type":[0,0,0,0,0,0,0,0,0,0,0,0,0,0,0],"sum_hessian":[2.5909576E1,2.3406086E1,2.5034897E0,1.7864105E1,5.541982E0,1.3175362E1,4.6887426E0,3.0608482E0,2.481134E0,1.2095746E1,1.0796155E0,3.235929E0,1.4528135E0,1.2602857E0,1.2208482E0],"tree_param":{"num_deleted":"0","num_feature":"25","num_nodes":"15","size_leaf_vector":"1"}},{"base_weights":[-0E0,1.3911639E-1,-2.2615198E-2,2.3403634E-1,-1.4904557E-1,2.6666328E-1,-1.4791363E-3,-0E0,-1.4630385E-2,-0E0,2.402167E-2],"categories":[],"categories_nodes":[],"categories_segments":[],"categories_sizes":[],"default_left":[0,0,0,0,0,0,0,0,0,0,0],"id":54,"left_children":[1,3,-1,5,7,9,-1,-1,-1,-1,-1],"loss_changes":[1.9943421E0,1.2730732E0,0E0,4.0106082E-1,1.6480881E-1,4.895885E-1,0E0,0E0,0E0,0E0,0E0],"parents":[2147483647,0,0,1,1,3,3,4,4,5,5],"right_children":[2,4,-1,6,8,10,-1,-1,-1,-1,-1],"split_conditions":[6.3639414E-1,1.0030949E0,-2.2615198E-2,1E0,3.200222E-1,-8.376865E-1,-1.4791363E-3,-0E0,-1.4630385E-2,-0E0,2.402167E-2],"split_indices":[4,3,0,17,10,4,0,0,0,0,0],"split_type":[0,0,0,0,0,0,0,0,0,0,0],"sum_hessian":[2.757034E1,2.2469233E1,5.1011057E0,1.942482E1,3.0444136E0,1.8244133E1,1.1806871E0,1.0362265E0,2.008187E0,3.7669487E0,1.4477183E1],"tree_param":{"num_deleted":"0","num_feature":"25","num_nodes":"11","size_leaf_vector":"1"}},{"base_weights":[-0E0,-1.5550086E-1,2.7713966E-1,-2.8385913E-1,7.325422E-2,3.3090815E-1,-1.0177465E-3,-4.003927E-1,8.606091E-2,-1.2660663E-1,1.9377874E-2,2.6768204E-2,-0E0,5.0749304E-3,-3.6770433E-2,9.363694E-3,-0E0,-1.3594641E-2,-0E0],"categories":[],"categories_nodes":[],"categories_segments":[],"categories_sizes":[],"default_left":[0,0,0,0,0,0,0,0,0,0,0,0,0,0,0,0,0,0,0],"id":55,"left_children":[1,3,5,7,9,11,-1,13,15,17,-1,-1,-1,-1,-1,-1,-1,-1,-1],"loss_changes":[2.0380287E0,1.1694261E0,4.4835532E-1,1.4380059E0,1.0246063E0,1.1608851E-1,0E0,1.3208001E0,8.010338E-2,1.5898958E-1,0E0,0E0,0E0,0E0,0E0,0E0,0E0,0E0,0E0],"parents":[2147483647,0,0,1,1,2,2,3,3,4,4,5,5,7,7,8,8,9,9],"right_children":[2,4,6,8,10,12,-1,14,16,18,-1,-1,-1,-1,-1,-1,-1,-1,-1],"split_conditions":[7.4952495E-1,2.0995775E-1,5.843526E-1,8.606809E-1,8.3696795E-1,4.367122E-1,-1.0177465E-3,-2.3114061E0,-3.0638987E-1,4.0301028E-1,1.9377874E-2,2.6768204E-2,-0E0,5.0749304E-3,-3.6770433E-2,9.363694E-3,-0E0,-1.3594641E-2,-0E0],"split_indices":[2,9,3,6,7,4,0,2,4,0,0,0,0,0,0,0,0,0,0],"split_type":[0,0,0,0,0,0,0,0,0,0,0,0,0,0,0,0,0,0,0],"sum_hessian":[2.6880964E1,1.969507E1,7.185894E0,1.2263807E1,7.431263E0,6.1307173E0,1.055177E0,9.573707E0,2.690101E0,3.9651465E0,3.4661162E0,4.8541713E0,1.2765459E0,1.1397613E0,8.433946E0,1.2268807E0,1.4632202E0,1.7126695E0,2.2524772E0],"tree_param":{"num_deleted":"0","num_feature":"25","num_nodes":"19","size_leaf_vector":"1"}},{"base_weights":[4.98981E-2,2.0679723E-1,-1.2467433E-1,-4.6168476E-2,3.0361092E-1,-2.1895553E-1,8.872062E-2,8.096686E-3,-1.7591798E-1,3.52683E-1,-0E0,-0E0,-2.5833043E-1,8.452708E-3,-0E0,-1.41098965E-2,-0E0,2.8514916E-2,-0E0,-0E0,-2.4758672E-2],"categories":[],"categories_nodes":[],"categories_segments":[],"categories_sizes":[],"default_left":[0,0,0,0,0,0,0,0,0,0,0,0,0,0,0,0,0,0,0,0,0],"id":56,"left_children":[1,3,5,7,9,11,13,-1,15,17,-1,-1,19,-1,-1,-1,-1,-1,-1,-1,-1],"loss_changes":[1.2404875E0,8.1948256E-1,6.788656E-1,4.9599066E-1,4.295441E-1,2.4280727E-1,4.3415114E-2,0E0,1.7989278E-2,8.050442E-2,0E0,0E0,2.8978026E-1,0E0,0E0,0E0,0E0,0E0,0E0,0E0,0E0],"parents":[2147483647,0,0,1,1,2,2,3,3,4,4,5,5,6,6,8,8,9,9,12,12],"right_children":[2,4,6,8,10,12,14,-1,16,18,-1,-1,20,-1,-1,-1,-1,-1,-1,-1,-1],"split_conditions":[-3.0638987E-1,-8.0844736E-1,8.080018E-1,-9.182724E-1,1E0,-6.723963E-1,9.082852E-2,8.096686E-3,1.8914382E-1,-1.3890252E-1,-0E0,-0E0,-1.024895E-1,8.452708E-3,-0E0,-1.41098965E-2,-0E0,2.8514916E-2,-0E0,-0E0,-2.4758672E-2],"split_indices":[4,4,9,4,21,8,0,0,7,8,0,0,11,0,0,0,0,0,0,0,0],"split_type":[0,0,0,0,0,0,0,0,0,0,0,0,0,0,0,0,0,0,0,0,0],"sum_hessian":[2.4601376E1,1.3267312E1,1.1334063E1,3.9043086E0,9.363003E0,9.062415E0,2.2716482E0,1.0650802E0,2.8392284E0,7.802891E0,1.5601122E0,1.729753E0,7.3326616E0,1.0799977E0,1.1916504E0,1.795488E0,1.0437405E0,5.958703E0,1.8441877E0,3.9904387E0,3.342223E0],"tree_param":{"num_deleted":"0","num_feature":"25","num_nodes":"21","size_leaf_vector":"1"}},{"base_weights":[-5.286259E-4,1.4437675E-1,-1.5344366E-1,-3.703439E-2,2.8217053E-1,5.2104894E-2,-2.9766518E-1,-1.9125515E-1,1.2772951E-2,-0E0,2.3692831E-2,1.4964096E-1,-7.2974367E-3,-3.3831972E-1,-0E0,-1.9205324E-2,2.0498587E-3,-1.7537051E-3,1.6292395E-2,-2.8743805E-2,-0E0],"categories":[],"categories_nodes":[],"categories_segments":[],"categories_sizes":[],"default_left":[0,0,0,0,0,0,0,0,0,0,0,0,0,0,0,0,0,0,0,0,0],"id":57,"left_children":[1,3,5,7,9,11,13,15,-1,-1,-1,17,-1,19,-1,-1,-1,-1,-1,-1,-1],"loss_changes":[1.0547819E0,7.822561E-1,9.8544693E-1,8.8954014E-1,1.4976978E-1,4.2059493E-1,3.2012486E-1,3.8894105E-1,0E0,0E0,0E0,3.2025817E-1,0E0,2.670591E-1,0E0,0E0,0E0,0E0,0E0,0E0,0E0],"parents":[2147483647,0,0,1,1,2,2,3,3,4,4,5,5,6,6,7,7,11,11,13,13],"right_children":[2,4,6,8,10,12,14,16,-1,-1,-1,18,-1,20,-1,-1,-1,-1,-1,-1,-1],"split_conditions":[-5.267532E-1,-2.4811545E-1,-2.613154E-1,-9.223279E-2,1E0,1.6419353E0,9.3294185E-1,1.1286219E0,1.2772951E-2,-0E0,2.3692831E-2,-4.5627895E-1,-7.2974367E-3,1.0322803E0,-0E0,-1.9205324E-2,2.0498587E-3,-1.7537051E-3,1.6292395E-2,-2.8743805E-2,-0E0],"split_indices":[4,6,6,5,23,4,7,0,0,0,0,8,0,6,0,0,0,0,0,0,0],"split_type":[0,0,0,0,0,0,0,0,0,0,0,0,0,0,0,0,0,0,0,0,0],"sum_hessian":[2.7430328E1,1.2942798E1,1.4487531E1,7.4114404E0,5.5313573E0,7.3914766E0,7.096054E0,5.8571353E0,1.5543048E0,1.5669641E0,3.9643934E0,6.1730947E0,1.2183816E0,6.0310116E0,1.0650425E0,4.7271457E0,1.1299895E0,1.7732933E0,4.3998017E0,4.3850794E0,1.6459322E0],"tree_param":{"num_deleted":"0","num_feature":"25","num_nodes":"21","size_leaf_vector":"1"}},{"base_weights":[-6.416603E-3,-1.0735913E-1,1.5712252E-2,5.9955433E-2,-2.1067205E-1,-1.1722567E-1,1.878871E-2,-3.417845E-1,1.2790847E-1,-1.4732312E-2,3.744706E-3,-3.1501215E-2,3.1778058E-3,-0E0,1.15480395E-2],"categories":[],"categories_nodes":[],"categories_segments":[],"categories_sizes":[],"default_left":[0,0,0,0,0,0,0,0,0,0,0,0,0,0,0],"id":58,"left_children":[1,3,-1,5,7,9,-1,11,13,-1,-1,-1,-1,-1,-1],"loss_changes":[9.529468E-1,7.456738E-1,0E0,9.7102106E-1,1.5778548E0,3.5959274E-1,0E0,9.4975066E-1,6.928015E-2,0E0,0E0,0E0,0E0,0E0,0E0],"parents":[2147483647,0,0,1,1,3,3,4,4,5,5,7,7,8,8],"right_children":[2,4,-1,6,8,10,-1,12,14,-1,-1,-1,-1,-1,-1],"split_conditions":[1E0,-1.3373724E-1,1.5712252E-2,-1.2205884E-1,9.5693535E-1,1.8748312E-1,1.878871E-2,1E0,-2.6694337E-1,-1.4732312E-2,3.744706E-3,-3.1501215E-2,3.1778058E-3,-0E0,1.15480395E-2],"split_indices":[18,10,0,2,7,6,0,22,1,0,0,0,0,0,0],"split_type":[0,0,0,0,0,0,0,0,0,0,0,0,0,0,0],"sum_hessian":[2.550214E1,2.2122997E1,3.3791437E0,8.47624E0,1.3646757E1,5.206699E0,3.2695415E0,1.0674524E1,2.9722328E0,4.093848E0,1.1128507E0,9.05469E0,1.619834E0,1.0363041E0,1.9359286E0],"tree_param":{"num_deleted":"0","num_feature":"25","num_nodes":"15","size_leaf_vector":"1"}},{"base_weights":[1.5997155E-2,2.1302266E-1,-1.1661539E-1,2.7842617E-1,-1.8892166E-3,3.9833803E-2,-2.0435655E-1,-0E0,2.3837773E-2,2.3925917E-1,-1.4488137E-2,4.467312E-3,-3.0810165E-1,-0E0,2.2040958E-2,-9.998113E-3,1.0225763E-2,-2.5577452E-2,-0E0],"categories":[],"categories_nodes":[],"categories_segments":[],"categories_sizes":[],"default_left":[0,0,0,0,0,0,0,0,0,0,0,0,0,0,0,0,0,0,0],"id":59,"left_children":[1,3,5,7,-1,9,11,-1,-1,13,-1,15,17,-1,-1,-1,-1,-1,-1],"loss_changes":[1.2959793E0,4.94263E-1,5.38447E-1,2.8285408E-1,0E0,1.2579002E0,6.073525E-1,0E0,0E0,2.622432E-1,0E0,4.6430317E-1,2.0090878E-1,0E0,0E0,0E0,0E0,0E0,0E0],"parents":[2147483647,0,0,1,1,2,2,3,3,5,5,6,6,9,9,11,11,12,12],"right_children":[2,4,6,8,-1,10,12,-1,-1,14,-1,16,18,-1,-1,-1,-1,-1,-1],"split_conditions":[-2.9675105E-1,1E0,-1.3373724E-1,-9.880365E-1,-1.8892166E-3,-1.0461867E-1,-3.8554952E-1,-0E0,2.3837773E-2,5.058384E-1,-1.4488137E-2,-8.2271034E-1,1.0177801E0,-0E0,2.2040958E-2,-9.998113E-3,1.0225763E-2,-2.5577452E-2,-0E0],"split_indices":[3,21,10,2,0,5,4,0,0,3,0,4,9,0,0,0,0,0,0],"split_type":[0,0,0,0,0,0,0,0,0,0,0,0,0,0,0,0,0,0,0],"sum_hessian":[2.8524248E1,1.0325977E1,1.8198273E1,8.175152E0,2.1508248E0,6.7592688E0,1.1439003E1,1.3408679E0,6.8342843E0,4.466769E0,2.2924995E0,5.6123786E0,5.8266244E0,1.7757689E0,2.6910002E0,1.1098458E0,4.502533E0,4.7212396E0,1.1053852E0],"tree_param":{"num_deleted":"0","num_feature":"25","num_nodes":"19","size_leaf_vector":"1"}},{"base_weights":[9.262707E-2,1.923865E-1,-1.5517761E-1,2.759625E-1,-1.124299E-1,-1.944193E-2,3.8128898E-2,3.1573555E-1,-1.8050572E-3,4.8830654E-3,-1.6219437E-2,7.634922E-3,-1.7678394E-3,2.6846102E-2,9.6826424E-4],"categories":[],"categories_nodes":[],"categories_segments":[],"categories_sizes":[],"default_left":[0,0,0,0,0,0,0,0,0,0,0,0,0,0,0],"id":60,"left_children":[1,3,5,7,9,-1,11,13,-1,-1,-1,-1,-1,-1,-1],"loss_changes":[1.2909467E0,1.2422494E0,5.050735E-1,5.6444025E-1,4.4771057E-1,0E0,1.068238E-1,1.5857863E-1,0E0,0E0,0E0,0E0,0E0,0E0,0E0],"parents":[2147483647,0,0,1,1,2,2,3,3,4,4,6,6,7,7],"right_children":[2,4,6,8,10,-1,12,14,-1,-1,-1,-1,-1,-1,-1],"split_conditions":[6.3639414E-1,1.0030949E0,3.5116202E-1,1E0,1.6215914E-1,-1.944193E-2,9.6915215E-1,9.514377E-1,-1.8050572E-3,4.8830654E-3,-1.6219437E-2,7.634922E-3,-1.7678394E-3,2.6846102E-2,9.6826424E-4],"split_indices":[4,3,2,17,11,0,2,0,0,0,0,0,0,0,0],"split_type":[0,0,0,0,0,0,0,0,0,0,0,0,0,0,0],"sum_hessian":[2.9504402E1,2.3853943E1,5.6504602E0,2.055878E1,3.2951615E0,2.9157367E0,2.7347233E0,1.89396E1,1.6191812E0,1.0630455E0,2.232116E0,1.5583503E0,1.1763731E0,1.3857932E1,5.0816684E0],"tree_param":{"num_deleted":"0","num_feature":"25","num_nodes":"15","size_leaf_vector":"1"}},{"base_weights":[-2.8179655E-2,-2.1266538E-1,1.6740769E-1,9.5668495E-2,-3.0836123E-1,2.3929594E-1,-6.081462E-3,7.827967E-3,-0E0,-0E0,-3.7212846E-1,3.5979772E-1,-3.4841403E-2,-6.451581E-3,8.330748E-3,-3.177947E-2,-0E0,3.0848878E-2,-0E0,4.502726E-3,-9.184443E-3],"categories":[],"categories_nodes":[],"categories_segments":[],"categories_sizes":[],"default_left":[0,0,0,0,0,0,0,0,0,0,0,0,0,0,0,0,0,0,0,0,0],"id":61,"left_children":[1,3,5,7,9,11,-1,-1,-1,13,15,17,19,-1,-1,-1,-1,-1,-1,-1,-1],"loss_changes":[1.6963634E0,1.1043628E0,6.5800357E-1,7.5798705E-3,5.4369044E-1,9.6080005E-1,0E0,0E0,0E0,2.2580373E-1,5.374532E-1,4.6537042E-1,2.1939453E-1,0E0,0E0,0E0,0E0,0E0,0E0,0E0,0E0],"parents":[2147483647,0,0,1,1,2,2,3,3,4,4,5,5,9,9,10,10,11,11,12,12],"right_children":[2,4,6,8,10,12,-1,-1,-1,14,16,18,20,-1,-1,-1,-1,-1,-1,-1,-1],"split_conditions":[4.0301028E-1,-1.1691309E0,-1.03668295E-1,-1.0993708E-1,-1.0786126E0,4.1188237E-1,-6.081462E-3,7.827967E-3,-0E0,-1.5434299E0,-1.0263043E-1,7.435686E-1,-6.6653055E-1,-6.451581E-3,8.330748E-3,-3.177947E-2,-0E0,3.0848878E-2,-0E0,4.502726E-3,-9.184443E-3],"split_indices":[0,3,5,9,9,6,0,0,0,9,5,10,4,0,0,0,0,0,0,0,0],"split_type":[0,0,0,0,0,0,0,0,0,0,0,0,0,0,0,0,0,0,0,0,0],"sum_hessian":[2.6612698E1,1.4364579E1,1.2248119E1,2.3504238E0,1.2014155E1,1.1107005E1,1.1411136E0,1.1296866E0,1.2207372E0,2.972054E0,9.042101E0,6.622517E0,4.4844885E0,1.4313326E0,1.5407215E0,7.7722144E0,1.269887E0,5.5502257E0,1.0722916E0,1.3209081E0,3.1635802E0],"tree_param":{"num_deleted":"0","num_feature":"25","num_nodes":"21","size_leaf_vector":"1"}},{"base_weights":[4.4934772E-2,1.628123E-1,-1.8503614E-1,-1.3228147E-1,2.7248082E-1,-2.049101E-2,2.5413333E-2,3.6683835E-3,-1.730205E-2,3.651837E-1,-7.0966154E-2,6.632444E-3,-1.5870761E-3,3.1785082E-2,1.0746979E-4,5.0116586E-3,-1.3161124E-2],"categories":[],"categories_nodes":[],"categories_segments":[],"categories_sizes":[],"default_left":[0,0,0,0,0,0,0,0,0,0,0,0,0,0,0,0,0],"id":62,"left_children":[1,3,5,7,9,-1,11,-1,-1,13,15,-1,-1,-1,-1,-1,-1],"loss_changes":[1.2444165E0,1.3836339E0,4.57196E-1,4.3285817E-1,1.212902E0,0E0,8.2877405E-2,0E0,0E0,2.968402E-1,3.47901E-1,0E0,0E0,0E0,0E0,0E0,0E0],"parents":[2147483647,0,0,1,1,2,2,3,3,4,4,6,6,9,9,10,10],"right_children":[2,4,6,8,10,-1,12,-1,-1,14,16,-1,-1,-1,-1,-1,-1],"split_conditions":[6.3639414E-1,-8.2271034E-1,3.5116202E-1,-8.9944524E-1,1.0030949E0,-2.049101E-2,1.5135684E0,3.6683835E-3,-1.730205E-2,8.4175223E-1,1.8041077E-1,6.632444E-3,-1.5870761E-3,3.1785082E-2,1.0746979E-4,5.0116586E-3,-1.3161124E-2],"split_indices":[4,4,2,4,3,0,4,0,0,0,11,0,0,0,0,0,0],"split_type":[0,0,0,0,0,0,0,0,0,0,0,0,0,0,0,0,0],"sum_hessian":[2.5140617E1,1.9774302E1,5.366316E0,3.7484376E0,1.6025864E1,3.135187E0,2.231129E0,1.5479448E0,2.2004929E0,1.3096255E1,2.9296083E0,1.0265582E0,1.2045707E0,8.899326E0,4.1969285E0,1.0498211E0,1.8797872E0],"tree_param":{"num_deleted":"0","num_feature":"25","num_nodes":"17","size_leaf_vector":"1"}},{"base_weights":[1.6565086E-2,1.9606426E-1,-1.0809932E-1,-8.047766E-3,3.0315042E-1,1.4418726E-1,-2.3580438E-1,2.999441E-2,-2.3069017E-2,1.7358892E-2,-3.43275E-3,-3.840078E-1,1.0489334E-1,-7.118167E-3,2.2336273E-3,-3.2459367E-2,-0E0,-2.2777854E-3,1.3633963E-2],"categories":[],"categories_nodes":[],"categories_segments":[],"categories_sizes":[],"default_left":[0,0,0,0,0,0,0,0,0,0,0,0,0,0,0,0,0,0,0],"id":63,"left_children":[1,3,5,-1,7,9,11,-1,13,-1,-1,15,17,-1,-1,-1,-1,-1,-1],"loss_changes":[1.0663689E0,1.0542812E0,1.235793E0,0E0,8.253577E-1,4.1487843E-1,1.6611372E0,0E0,1.0339514E-1,0E0,0E0,4.4749546E-1,2.6199347E-1,0E0,0E0,0E0,0E0,0E0,0E0],"parents":[2147483647,0,0,1,1,2,2,4,4,5,5,6,6,8,8,11,11,12,12],"right_children":[2,4,6,-1,8,10,12,-1,14,-1,-1,16,18,-1,-1,-1,-1,-1,-1],"split_conditions":[-3.7938377E-1,-8.42576E-1,-5.528601E-1,-8.047766E-3,4.367122E-1,5.1181283E-2,8.942059E-1,2.999441E-2,5.490461E-1,1.7358892E-2,-3.43275E-3,8.729582E-1,6.897638E-1,-7.118167E-3,2.2336273E-3,-3.2459367E-2,-0E0,-2.2777854E-3,1.3633963E-2],"split_indices":[8,7,9,0,4,7,9,0,7,0,0,7,1,0,0,0,0,0,0],"split_type":[0,0,0,0,0,0,0,0,0,0,0,0,0,0,0,0,0,0,0],"sum_hessian":[2.6511179E1,9.916587E0,1.6594593E1,1.5536488E0,8.362938E0,4.0241113E0,1.2570481E1,5.7510467E0,2.6118913E0,2.8175156E0,1.2065955E0,8.743886E0,3.8265955E0,1.1595112E0,1.45238E0,7.234648E0,1.509238E0,1.5523008E0,2.2742949E0],"tree_param":{"num_deleted":"0","num_feature":"25","num_nodes":"19","size_leaf_vector":"1"}},{"base_weights":[-1.061644E-2,2.0980287E-1,-2.2407156E-1,-2.965048E-2,2.9821157E-1,-3.3141634E-1,8.599863E-2,9.64761E-3,-1.4777618E-2,2.5479492E-2,-0E0,-0E0,-3.6208078E-1,1.47225475E-2,-5.1619723E-3,-2.9136898E-2,-0E0],"categories":[],"categories_nodes":[],"categories_segments":[],"categories_sizes":[],"default_left":[0,0,0,0,0,0,0,0,0,0,0,0,0,0,0,0,0],"id":64,"left_children":[1,3,5,7,9,11,13,-1,-1,-1,-1,-1,15,-1,-1,-1,-1],"loss_changes":[2.2141266E0,6.759257E-1,1.2075615E0,6.456183E-1,3.0424392E-1,3.038721E-1,4.1332474E-1,0E0,0E0,0E0,0E0,0E0,1.7587423E-1,0E0,0E0,0E0,0E0],"parents":[2147483647,0,0,1,1,2,2,3,3,4,4,5,5,6,6,12,12],"right_children":[2,4,6,8,10,12,14,-1,-1,-1,-1,-1,16,-1,-1,-1,-1],"split_conditions":[-5.196217E-1,-8.376865E-1,-1.17839776E-1,-9.182724E-1,1E0,-1.1429595E0,2.5258753E0,9.64761E-3,-1.4777618E-2,2.5479492E-2,-0E0,-0E0,1.0322803E0,1.47225475E-2,-5.1619723E-3,-2.9136898E-2,-0E0],"split_indices":[4,4,8,4,21,3,8,0,0,0,0,0,6,0,0,0,0],"split_type":[0,0,0,0,0,0,0,0,0,0,0,0,0,0,0,0,0],"sum_hessian":[2.6938654E1,1.2357155E1,1.4581499E1,3.8272176E0,8.529937E0,1.133905E1,3.242449E0,1.844453E0,1.9827645E0,7.0018992E0,1.5280375E0,1.1435142E0,1.0195537E1,1.9484135E0,1.2940354E0,8.805463E0,1.390073E0],"tree_param":{"num_deleted":"0","num_feature":"25","num_nodes":"17","size_leaf_vector":"1"}},{"base_weights":[-0E0,-1.0691487E-1,1.7764236E-1,-2.2832173E-1,1.1873901E-1,2.4051756E-1,-1.3735145E-3,-3.1819856E-1,7.888904E-3,1.9243243E-1,-2.1883694E-3,2.0570893E-2,-0E0,-2.868705E-2,3.226377E-3,-0E0,1.5865726E-2],"categories":[],"categories_nodes":[],"categories_segments":[],"categories_sizes":[],"default_left":[0,0,0,0,0,0,0,0,0,0,0,0,0,0,0,0,0],"id":65,"left_children":[1,3,5,7,9,11,-1,13,-1,15,-1,-1,-1,-1,-1,-1,-1],"loss_changes":[8.4349066E-1,1.1278436E0,3.357507E-1,1.1395472E0,2.9648912E-1,1.7028213E-1,0E0,8.171625E-1,0E0,4.2026162E-2,0E0,0E0,0E0,0E0,0E0,0E0,0E0],"parents":[2147483647,0,0,1,1,2,2,3,3,4,4,5,5,7,7,9,9],"right_children":[2,4,6,8,10,12,-1,14,-1,16,-1,-1,-1,-1,-1,-1,-1],"split_conditions":[7.8876764E-1,5.768818E-1,1E0,9.0295E-1,2.2980642E-1,7.7098584E-1,-1.3735145E-3,1E0,7.888904E-3,-7.947909E-1,-2.1883694E-3,2.0570893E-2,-0E0,-2.868705E-2,3.226377E-3,-0E0,1.5865726E-2],"split_indices":[2,6,12,7,2,7,0,18,0,2,0,0,0,0,0,0,0],"split_type":[0,0,0,0,0,0,0,0,0,0,0,0,0,0,0,0,0],"sum_hessian":[2.5589037E1,1.9571367E1,6.01767E0,1.3873477E1,5.6978908E0,4.475107E0,1.5425626E0,1.228695E1,1.586527E0,3.709307E0,1.9885838E0,3.4640725E0,1.011035E0,1.0975601E1,1.3113484E0,1.3621243E0,2.3471828E0],"tree_param":{"num_deleted":"0","num_feature":"25","num_nodes":"17","size_leaf_vector":"1"}},{"base_weights":[4.549362E-2,2.3382828E-1,-1.0787804E-1,-3.900815E-3,3.1102538E-1,-2.89537E-1,1.01095505E-1,2.6800498E-2,-0E0,-3.1667778E-1,-0E0,3.1357044E-1,-1.6423732E-2,-0E0,-2.4951706E-2,2.7559606E-2,-1.6794233E-4],"categories":[],"categories_nodes":[],"categories_segments":[],"categories_sizes":[],"default_left":[0,0,0,0,0,0,0,0,0,0,0,0,0,0,0,0,0],"id":66,"left_children":[1,3,5,-1,7,9,11,-1,-1,13,-1,15,-1,-1,-1,-1,-1],"loss_changes":[1.3320504E0,7.203429E-1,1.3287324E0,0E0,3.5282004E-1,1.2471354E-1,1.949588E0,0E0,0E0,6.836176E-3,0E0,4.261787E-1,0E0,0E0,0E0,0E0,0E0],"parents":[2147483647,0,0,1,1,2,2,4,4,5,5,6,6,9,9,11,11],"right_children":[2,4,6,-1,8,10,12,-1,-1,14,-1,16,-1,-1,-1,-1,-1],"split_conditions":[-8.423787E-2,-8.684946E-1,6.367015E-1,-3.900815E-3,6.3639414E-1,1.0864352E0,5.843526E-1,2.6800498E-2,-0E0,-8.698334E-1,-0E0,1.5135684E0,-1.6423732E-2,-0E0,-2.4951706E-2,2.7559606E-2,-1.6794233E-4],"split_indices":[11,4,11,0,4,0,3,0,0,6,0,4,0,0,0,0,0],"split_type":[0,0,0,0,0,0,0,0,0,0,0,0,0,0,0,0,0],"sum_hessian":[2.5528202E1,1.0348066E1,1.5180137E1,1.7271537E0,8.620913E0,7.147062E0,8.033074E0,6.957564E0,1.6633488E0,5.577439E0,1.5696229E0,5.735741E0,2.2973332E0,1.3278943E0,4.2495446E0,4.690436E0,1.0453056E0],"tree_param":{"num_deleted":"0","num_feature":"25","num_nodes":"17","size_leaf_vector":"1"}},{"base_weights":[-5.6338437E-2,1.604814E-1,-1.9573027E-1,-0E0,1.8029494E-2,-0E0,-2.5212678E-1,8.734965E-2,-9.663595E-3,-9.4006576E-2,1.1013656E-2,-3.0318823E-1,2.73172E-3,-7.2138886E-5,1.0180465E-2,-1.4724138E-2,3.7725016E-3,-2.6684856E-2,3.2613878E-4],"categories":[],"categories_nodes":[],"categories_segments":[],"categories_sizes":[],"default_left":[0,0,0,0,0,0,0,0,0,0,0,0,0,0,0,0,0,0,0],"id":67,"left_children":[1,3,5,7,-1,9,11,13,-1,15,-1,17,-1,-1,-1,-1,-1,-1,-1],"loss_changes":[1.426872E0,3.3665726E-1,3.917446E-1,2.9086056E-1,0E0,3.60303E-1,5.6124043E-1,1.1171781E-1,0E0,3.6213875E-1,0E0,5.109384E-1,0E0,0E0,0E0,0E0,0E0,0E0,0E0],"parents":[2147483647,0,0,1,1,2,2,3,3,5,5,6,6,7,7,9,9,11,11],"right_children":[2,4,6,8,-1,10,12,14,-1,16,-1,18,-1,-1,-1,-1,-1,-1,-1],"split_conditions":[-2.9675105E-1,3.2675898E-1,-8.464189E-1,-7.6210326E-1,1.8029494E-2,-4.2511803E-1,1.1308881E0,3.861356E-1,-9.663595E-3,1E0,1.1013656E-2,1E0,2.73172E-3,-7.2138886E-5,1.0180465E-2,-1.4724138E-2,3.7725016E-3,-2.6684856E-2,3.2613878E-4],"split_indices":[3,2,9,10,0,2,7,0,0,23,0,22,0,0,0,0,0,0,0],"split_type":[0,0,0,0,0,0,0,0,0,0,0,0,0,0,0,0,0,0,0],"sum_hessian":[2.6322487E1,8.514547E0,1.780794E1,4.364537E0,4.1500106E0,4.8863726E0,1.2921566E1,2.5526776E0,1.8118594E0,3.759371E0,1.1270018E0,1.1796852E1,1.1247134E0,1.2332853E0,1.3193922E0,1.8330615E0,1.9263096E0,9.965025E0,1.8318274E0],"tree_param":{"num_deleted":"0","num_feature":"25","num_nodes":"19","size_leaf_vector":"1"}},{"base_weights":[8.0243625E-2,2.4074067E-1,-5.346413E-2,-3.1409299E-3,3.0986226E-1,-2.1305043E-1,1.086528E-1,2.9067736E-2,-1.5701514E-3,-3.1607834E-1,2.8198192E-2,3.335673E-1,-1.7439652E-2,-2.8610121E-2,-0E0,-2.890135E-3,7.943718E-3,2.631746E-2,-0E0],"categories":[],"categories_nodes":[],"categories_segments":[],"categories_sizes":[],"default_left":[0,0,0,0,0,0,0,0,0,0,0,0,0,0,0,0,0,0,0],"id":68,"left_children":[1,3,5,-1,7,9,11,-1,-1,13,15,17,-1,-1,-1,-1,-1,-1,-1],"loss_changes":[9.8116523E-1,6.267545E-1,9.58454E-1,0E0,6.971444E-1,6.5881556E-1,2.225432E0,0E0,0E0,4.5658374E-1,1.3797602E-1,4.3070555E-2,0E0,0E0,0E0,0E0,0E0,0E0,0E0],"parents":[2147483647,0,0,1,1,2,2,4,4,5,5,6,6,9,9,10,10,11,11],"right_children":[2,4,6,-1,8,10,12,-1,-1,14,16,18,-1,-1,-1,-1,-1,-1,-1],"split_conditions":[-8.423787E-2,-1.5784672E0,6.275757E-1,-3.1409299E-3,-1.0381981E-1,1E0,5.843526E-1,2.9067736E-2,-1.5701514E-3,5.3499734E-1,2.1313731E-1,7.236294E-1,-1.7439652E-2,-2.8610121E-2,-0E0,-2.890135E-3,7.943718E-3,2.631746E-2,-0E0],"split_indices":[11,9,11,0,5,23,3,0,0,9,7,0,0,0,0,0,0,0,0],"split_type":[0,0,0,0,0,0,0,0,0,0,0,0,0,0,0,0,0,0,0],"sum_hessian":[2.6012323E1,9.62929E0,1.6383034E1,1.4612916E0,8.167998E0,7.9946203E0,8.388413E0,6.3039804E0,1.8640177E0,4.663858E0,3.3307624E0,5.928105E0,2.460309E0,3.2737534E0,1.3901049E0,1.5461773E0,1.784585E0,4.8198915E0,1.1082132E0],"tree_param":{"num_deleted":"0","num_feature":"25","num_nodes":"19","size_leaf_vector":"1"}},{"base_weights":[-0E0,-8.119083E-2,1.6291045E-2,-1.5495688E-1,8.977026E-2,-2.7518067E-1,-0E0,1.5788393E-2,-7.0659323E-3,5.3588057E-5,-2.6212202E-2,-9.482321E-3,1.1273195E-2],"categories":[],"categories_nodes":[],"categories_segments":[],"categories_sizes":[],"default_left":[0,0,0,0,0,0,0,0,0,0,0,0,0],"id":69,"left_children":[1,3,-1,5,7,9,11,-1,-1,-1,-1,-1,-1],"loss_changes":[8.098879E-1,5.891324E-1,0E0,6.1038065E-1,5.710091E-1,4.986328E-1,6.039298E-1,0E0,0E0,0E0,0E0,0E0,0E0],"parents":[2147483647,0,0,1,1,3,3,4,4,5,5,6,6],"right_children":[2,4,-1,6,8,10,12,-1,-1,-1,-1,-1,-1],"split_conditions":[1E0,-4.8085142E-2,1.6291045E-2,-2.0799171E-2,-1.044751E-1,-9.565451E-1,1E0,1.5788393E-2,-7.0659323E-3,5.3588057E-5,-2.6212202E-2,-9.482321E-3,1.1273195E-2],"split_indices":[18,8,0,7,5,7,23,0,0,0,0,0,0],"split_type":[0,0,0,0,0,0,0,0,0,0,0,0,0],"sum_hessian":[2.603834E1,2.3486773E1,2.5515666E0,1.8799017E1,4.687757E0,7.192504E0,1.1606512E1,3.370135E0,1.317622E0,2.375364E0,4.8171396E0,6.1943073E0,5.4122047E0],"tree_param":{"num_deleted":"0","num_feature":"25","num_nodes":"13","size_leaf_vector":"1"}},{"base_weights":[2.7716685E-2,-1.375544E-1,1.5064642E-1,-2.076871E-1,2.9693218E-3,2.2133316E-1,-7.82885E-3,-2.4648824E-1,-0E0,2.8120255E-1,-0E0,-2.0149035E-2,-0E0,2.3756426E-2,-0E0,9.537756E-3,-1.0893688E-2],"categories":[],"categories_nodes":[],"categories_segments":[],"categories_sizes":[],"default_left":[0,0,0,0,0,0,0,0,0,0,0,0,0,0,0,0,0],"id":70,"left_children":[1,3,5,7,-1,9,-1,11,-1,13,15,-1,-1,-1,-1,-1,-1],"loss_changes":[9.193684E-1,3.8431323E-1,7.5196546E-1,2.3172396E-1,0E0,3.5675776E-1,0E0,7.3486805E-2,0E0,2.3152626E-1,4.6109366E-1,0E0,0E0,0E0,0E0,0E0,0E0],"parents":[2147483647,0,0,1,1,2,2,3,3,5,5,7,7,9,9,10,10],"right_children":[2,4,6,8,-1,10,-1,12,-1,14,16,-1,-1,-1,-1,-1,-1],"split_conditions":[-1.6229182E-1,1.0058804E0,1E0,1.2891973E0,2.9693218E-3,1.3071509E-1,-7.82885E-3,8.8222784E-1,-0E0,-9.192977E-2,8.5018957E-1,-2.0149035E-2,-0E0,2.3756426E-2,-0E0,9.537756E-3,-1.0893688E-2],"split_indices":[0,6,20,11,0,3,0,8,0,5,0,0,0,0,0,0,0],"split_type":[0,0,0,0,0,0,0,0,0,0,0,0,0,0,0,0,0],"sum_hessian":[2.4778236E1,8.585931E0,1.6192307E1,6.6305037E0,1.9554274E0,1.50091915E1,1.1831139E0,5.6207767E0,1.0097269E0,1.000531E1,5.003882E0,4.241302E0,1.3794746E0,8.168357E0,1.836953E0,2.999736E0,2.0041456E0],"tree_param":{"num_deleted":"0","num_feature":"25","num_nodes":"17","size_leaf_vector":"1"}},{"base_weights":[2.2977257E-2,1.5710592E-1,-1.23918496E-1,-5.85315E-2,2.6503867E-1,9.374755E-2,-2.7205676E-1,6.8469145E-3,-1.8026109E-1,2.9742223E-1,-0E0,1.9148651E-1,-4.820482E-2,-0E0,-2.4722712E-2,-1.4424903E-2,-0E0,-0E0,2.5441067E-2,1.7130999E-2,-0E0,-7.413292E-3,5.9915974E-4,7.515105E-3,-6.9493E-3],"categories":[],"categories_nodes":[],"categories_segments":[],"categories_sizes":[],"default_left":[0,0,0,0,0,0,0,0,0,0,0,0,0,0,0,0,0,0,0,0,0,0,0,0,0],"id":71,"left_children":[1,3,5,7,9,11,13,-1,15,17,-1,19,21,23,-1,-1,-1,-1,-1,-1,-1,-1,-1,-1,-1],"loss_changes":[9.028552E-1,8.093563E-1,1.0044699E0,4.7511238E-1,2.5983715E-1,3.5766816E-1,2.804768E-1,0E0,1.8048048E-2,1.9537759E-1,0E0,1.3754433E-1,8.098595E-2,2.0852454E-1,0E0,0E0,0E0,0E0,0E0,0E0,0E0,0E0,0E0,0E0,0E0],"parents":[2147483647,0,0,1,1,2,2,3,3,4,4,5,5,6,6,8,8,9,9,11,11,12,12,13,13],"right_children":[2,4,6,8,10,12,14,-1,16,18,-1,20,22,24,-1,